%YAML:1.0
---
opencv_ml_ann_mlp:
   format: 3
   layer_sizes: [ 150, 102, 2 ]
   activation_function: SIGMOID_SYM
   f_param1: 2.
   f_param2: 1.
   min_val: -0.94999999999999996
   max_val: 0.94999999999999996
   min_val1: -0.97999999999999998
   max_val1: 0.97999999999999998
   training_params:
      train_method: BACKPROP
      dw_scale: 0.050000000000000003
      moment_scale: 0.050000000000000003
      term_criteria:
         epsilon: 0.001
         iterations: 5000
   input_scale:
      - 86.809171458403114
      - -0.41763993842712188
      - 115.2616298562171
      - -0.64816523221034972
      - 162.97874546446101
      - -0.98123543755500409
      - 111.08816066585372
      - -0.84011896899952954
      - 96.464346147902148
      - -0.8028285482645644
      - 78.084330958567847
      - -0.813810137477472
      - 145.46388637591576
      - -0.94399974978953105
      - 144.43503978222151
      - -0.91229980006508393
      - 138.66041495479038
      - -0.74525959678407305
      - 96.508238065813671
      - -0.9177900250020381
      - 111.99728623815784
      - -0.90938776267151056
      - 127.56404823265707
      - -0.74662074645483634
      - 176.93067852613771
      - -0.84784503859924953
      - 138.47560771755423
      - -0.75525841752055622
      - 112.46398703887449
      - -0.86095043292861684
      - 147.69520909979923
      - -0.79600037567978377
      - 115.66349931711369
      - -0.75928717731479223
      - 99.325493856705947
      - -0.82932108230750889
      - 161.35234433554015
      - -0.82403355535869804
      - 130.78917689634787
      - -0.68661321007345144
      - 112.56308184060663
      - -0.87125185638293412
      - 90.86014730243933
      - -0.79521208965336898
      - 129.94877084949584
      - -0.8744176922913417
      - 135.51834383847998
      - -0.76384978123976122
      - 152.48505099536681
      - -0.79129699251828245
      - 138.3258713819101
      - -0.97022076437013016
      - 127.24636773479905
      - -0.87623680221519218
      - 83.577543092163467
      - -0.58800696180698109
      - 100.09926305248472
      - -0.72468212514048502
      - 130.27763461817801
      - -0.72647091252220486
      - 148.64621501551355
      - -0.9696329235972857
      - 118.97743670813358
      - -0.81562615989842624
      - 134.23347479378839
      - -0.86729561471897643
      - 138.97670945209086
      - -0.8013519299323576
      - 172.86663160531987
      - -0.8318139736760285
      - 112.58847643328964
      - -0.82992211723937925
      - 112.89213223817423
      - -0.79120797260165665
      - 162.83020928283838
      - -0.82927572231020363
      - 119.15841118860912
      - -0.81381756163121666
      - 84.357004699173075
      - -0.46495924906986763
      - 106.80379214504053
      - -0.80085635203778238
      - 152.64662691098496
      - -0.95088197594171497
      - 106.73182149919332
      - -0.76930636958650467
      - 169.86255838478317
      - -0.70494278341704331
      - 128.17419266923588
      - -0.91939895786982684
      - 174.66730462380312
      - -0.81488723678137964
      - 127.15892542717883
      - -0.75409022513613466
      - 119.2626570275015
      - -0.79806084529846666
      - 130.32219414526384
      - -0.79675388377446787
      - 108.30286221515257
      - -0.73900554658840623
      - 113.16056209336442
      - -0.91676469946951233
      - 98.684615721684594
      - -0.94107474044539752
      - 163.27120599775415
      - -0.76375187672861078
      - 111.51985765480309
      - -0.68796955624356704
      - 152.19171634146542
      - -0.9082148700948075
      - 138.84786047347396
      - -0.72576815338084477
      - 143.1271793620721
      - -0.90579755614768498
      - 132.11080644234832
      - -0.89327090065143355
      - 134.15163991631221
      - -0.7718733319053841
      - 152.60171018289168
      - -0.87006134375495803
      - 165.17579381766686
      - -0.68909545937171446
      - 114.92438016160098
      - -0.74088135521302212
      - 134.331077713897
      - -0.73989300457039886
      - 67.279246271194253
      - -0.5686432767976346
      - 131.00434899638532
      - -0.94330380892688703
      - 152.83641840113131
      - -0.76655323887960536
      - 142.53510689643804
      - -0.78428475111200868
      - 152.84803666471802
      - -0.8956242945435049
      - 39.946001742277033
      - -0.37759168480614325
      - 141.27807510535192
      - -0.91990217207761027
      - 154.58024846676054
      - -0.75745440845239342
      - 142.60213395529556
      - -0.89889162932613875
      - 139.70879657880067
      - -0.87613423979189753
      - 149.87399729149388
      - -0.89770458357568228
      - 147.52111348338119
      - -0.96615802125862627
      - 81.828078746228599
      - -0.75935309128158013
      - 159.45514491523116
      - -0.78396664707217689
      - 149.76888465261652
      - -0.95851355008612005
      - 105.34291847308749
      - -0.84567141433545534
      - 79.706567801070406
      - -0.78390563595492313
      - 166.77596401023339
      - -0.92446372118612163
      - 74.67103572359882
      - -0.74352012576234427
      - 113.78458882142569
      - -0.96419222103188351
      - 60.775459193953935
      - -0.56047509145310137
      - 107.1961223724398
      - -0.92209731094881453
      - 148.6882574363392
      - -0.91550928577312785
      - 131.78220272040505
      - -0.70511086474677376
      - 152.95936979586634
      - -0.8023743776545299
      - 170.91849095015596
      - -0.87693511567230176
      - 108.58952576344777
      - -0.59749135711970058
      - 126.83617571715173
      - -0.95783695628469467
      - 95.844215486187423
      - -0.94882223839888913
      - 138.70092926836745
      - -0.84289095205150122
      - 58.299891422048759
      - -0.67707296176046627
      - 151.26511724296114
      - -0.84640427737346735
      - 134.15711146535818
      - -0.73419026685651223
      - 157.73692213282709
      - -0.84238546866856201
      - 137.8309109459359
      - -0.80339504677609586
      - 105.7181173506108
      - -0.85034713048713018
      - 117.07865814210153
      - -0.84369395898973387
      - 124.963268833825
      - -0.74200424040998569
      - 134.530709166858
      - -1.0349835448210289
      - 105.70012566018947
      - -0.66500284457095127
      - 90.275596287103909
      - -0.73960491964902386
      - 142.32273017922952
      - -0.81387191910007139
      - 128.66945103138997
      - -0.75366270506281174
      - 106.03506780929814
      - -0.81336899383755912
      - 147.05032756631542
      - -0.84347906689676988
      - 122.95160171226377
      - -0.95775917979054814
      - 113.55792347591016
      - -0.87831196052879523
      - 137.53575415291829
      - -0.86701436265897547
      - 96.159024914577188
      - -0.88583407804194991
      - 143.5893211569761
      - -0.76625746992407484
      - 150.84970510491058
      - -0.85492900455301335
      - 133.8156214810702
      - -0.93416728557461126
      - 158.90085931278745
      - -0.93902087902929032
      - 143.78555922749592
      - -0.90570642246926547
      - 147.68321388262513
      - -0.77185992926323677
      - 127.35146133594813
      - -0.83528364294614044
      - 133.63608080149265
      - -0.99926301338990187
      - 68.029001605641866
      - -1.0224610441671351
      - 143.49520602911639
      - -0.89376178450299104
      - 130.18996499932234
      - -0.8509261612451765
      - 155.87397797720936
      - -0.98930894507375489
      - 160.39179628746388
      - -0.96103718485712575
      - 128.28376385049057
      - -0.82473274516720607
      - 154.04141868814042
      - -0.84007000416288469
      - 76.359480527590506
      - -0.48594494555002504
      - 105.72908159723843
      - -0.83712611226399603
      - 135.65539170200296
      - -0.70256110484352918
      - 134.87155472189755
      - -0.77490127373706352
      - 154.26069488327161
      - -0.75085812144776587
      - 149.93714211265223
      - -0.80748544118074694
      - 104.4329026889134
      - -0.77837656848816361
      - 109.0576040743443
      - -0.82351566220301931
      - 153.58714579369135
      - -0.84885278533582986
      - 122.36944478575397
      - -0.84615325834139454
      - 134.35311479763146
      - -0.65637880817168714
      - 147.86409617424462
      - -0.77025606329044471
      - 131.67124228050605
      - -0.90248764432414397
      - 70.766089959700125
      - -0.98635119513812886
      - 94.466608715093244
      - -0.79022896114673935
      - 178.9736766818007
      - -0.84628342485744812
      - 143.19782454031321
      - -0.7408203927381688
      - 138.06615720233302
      - -0.839968671904746
      - 180.05176705074183
      - -0.81922991558568459
      - 143.51296456028876
      - -0.8786172357021339
      - 120.55756370516417
      - -0.76274905817403593
      - 95.821310180265371
      - -0.96042150245267366
      - 143.95415860318991
      - -0.73307328480953371
   output_scale:
      - 0.52631578947368418
      - 0.49999999999999994
      - 0.52631578947368418
      - 0.49999999999999994
   inv_output_scale:
      - 1.8999999999999999
      - -0.94999999999999996
      - 1.8999999999999999
      - -0.94999999999999996
   weights:
      -
         - 0.070185963792906397
         - -0.28030168503293112
         - -0.12647927353641084
         - -0.0055277980181698142
         - -0.12289080231805401
         - 0.016014135618527783
         - 0.052188436227803323
         - 0.18246603609704121
         - -0.087778595164997891
         - 0.0036841032330280931
         - -0.11834155578001435
         - 0.19883770371643653
         - -0.2897740715757679
         - 0.25807619444296309
         - -0.018133107418168377
         - 0.018354262305417948
         - 0.10840590000956662
         - -0.023821004838357505
         - -0.13514154280882842
         - -0.10191832487217248
         - 0.020343052372882909
         - -0.084356513202141326
         - -0.0073570246488316856
         - -0.18051211028840811
         - -0.090813499612306281
         - -0.20369507199209805
         - 0.011538195596405116
         - 0.11982352229213422
         - 0.18503436823826619
         - -0.10338489987275819
         - -0.10326499400461076
         - -0.20669621058266513
         - -0.021394878090870751
         - 0.0076898318761922336
         - 0.09353257055874295
         - -0.0040750471848995124
         - -0.16191907049995619
         - -0.030519866362449941
         - 0.15545476087402429
         - -0.035379643195425539
         - 0.005830918132331722
         - 0.19613896068479039
         - -0.026767855077452198
         - -0.025108649837991694
         - 0.073941980622454648
         - -0.016952460037730068
         - 0.17792358483331755
         - -0.013572206772511568
         - -0.0345006207069301
         - -0.21474614966499919
         - -0.0078993584324325294
         - 0.034575306997125445
         - -0.16637118918547245
         - 0.046849277656110758
         - 0.099744742287862925
         - 0.0016734997344551078
         - -0.091400405507835972
         - 0.095069151358439061
         - -0.0058856673800962963
         - -0.064304285942897027
         - -0.14563860395245506
         - 0.012556439622460603
         - -0.0366085520697053
         - 0.056000658871749737
         - -0.22494715950641209
         - -0.14493682748060599
         - -0.074044797444618671
         - -0.020281542440040112
         - 0.0080218086978062642
         - 0.015139316209179706
         - 0.03430560401293023
         - 0.1299267460555853
         - 0.24680886391332021
         - 0.1601448288955622
         - 0.05446313278420066
         - 0.14255896248325231
         - 0.16120964927364526
         - 0.080402325391254331
         - -0.011197917645568298
         - -0.00084626251376954597
         - -0.10711577929731349
         - -0.13349049060656576
         - -0.023495106712329236
         - 0.073343413596911891
         - -0.011541046272094763
         - -0.30227210943019345
         - 0.1406286744827093
         - -0.19594834498817357
         - 0.095891120218931522
         - -0.028609927099647235
         - 0.036051684918062328
         - 0.022513603455538187
         - -0.36225930122054473
         - -0.1169490397929985
         - -0.024804406964939515
         - 0.011009687191626984
         - 0.013623183949521283
         - 0.15058920177231591
         - 0.010109925190409222
         - -0.09854101051735939
         - -0.059637745914336203
         - 0.22577406964796098
         - 0.11813356474548198
         - -0.11533257006318974
         - -0.046592679202001636
         - -0.11191133666428166
         - -0.10027411912928957
         - 0.10960961058353914
         - -0.10997901828151811
         - 0.085076140445203036
         - -0.074222404981409654
         - 0.10528702136792478
         - -0.077453065675987684
         - 0.057645157772741915
         - -0.25201539216262298
         - 0.091485091805484919
         - 0.10187838655276141
         - 0.15373955202842035
         - 0.10953051125917371
         - 0.064858096698748202
         - -0.16440282475531798
         - -0.1247014597658581
         - -0.080995881730266117
         - 0.078796404210061996
         - 0.092696170261037242
         - -0.13646623588320386
         - -0.13070674912569535
         - -0.13628753872209182
         - 0.072998427146275233
         - 0.063860944681092199
         - 0.17728974008561041
         - -0.10684815976360765
         - 0.089408023672724768
         - -0.08973340076514276
         - 0.069784561314450252
         - 0.05176457750677739
         - 0.13671876780417141
         - 0.067430292683757734
         - -0.048963119579698025
         - 0.053799489426760876
         - 0.11004091671271764
         - 0.07630523725721669
         - -0.081864867237692762
         - 0.076424109155484754
         - 0.089422823318273864
         - -0.054768115033305663
         - 0.16022631298778389
         - 0.053419270399869101
         - 0.064418864479241861
         - 0.017095518051344981
         - 0.12839596211775658
         - -0.034319830452294947
         - 0.055893268417893029
         - -0.10076724518373659
         - 0.00025398494140852753
         - 0.058614800556548871
         - 0.026714350031212978
         - 0.065041469958139683
         - 0.054315894803984348
         - 0.06044280869428837
         - 0.056886094703769888
         - -0.070936404282104973
         - -0.12016264394166237
         - -0.10336648648047304
         - 0.06010732044459785
         - 0.10272959671218165
         - -0.067565195880584433
         - -0.10370779331799636
         - -0.069488989844626925
         - 0.063587077050414706
         - -0.093258520796858452
         - 0.078073325720737871
         - -0.10948716886737508
         - 0.13760237780120238
         - 0.10694186879951005
         - 0.10084626056719539
         - 0.079569098132627206
         - 0.080376128098802083
         - 0.16562138278598904
         - 0.0081709162795178519
         - 0.1160629685989558
         - 0.072843910984436974
         - 0.10371387779850168
         - -0.11822247128805836
         - 0.052857506574789506
         - 0.12087522504991725
         - 0.061329997309375876
         - -0.20143572037383178
         - 0.1359754562774772
         - -0.069715854003475311
         - 0.11351869711224429
         - 0.033929891221648599
         - 0.1451519231968047
         - -0.058901192570906945
         - -0.12602020542670192
         - -0.11820315511417696
         - -0.13678685577036376
         - 0.17528130353803995
         - 0.11347769330657931
         - 0.15916781664016783
         - -0.057407092055282091
         - -0.083501955922730783
         - -0.19693595159281357
         - 0.041562640743117378
         - -0.1665966221636031
         - 0.19859562756815546
         - 0.18227111992326009
         - 0.048810760579910788
         - 0.086277159930587349
         - -0.11325384040496511
         - -0.043667557989061981
         - -0.31271830971029169
         - 0.13593583603250248
         - 0.029039811898755208
         - 0.053755354754835706
         - -0.29629871700980903
         - 0.29455963463128088
         - -0.32050431688465653
         - 0.090881594540841298
         - -0.15153843197509437
         - -0.17458861580530538
         - 0.086262497776062458
         - 0.17064837536362298
         - 0.21229800224422588
         - -0.13489236122631093
         - 0.22077567773661577
         - 0.085816866163506408
         - 0.28950447261292173
         - 0.12529860076063004
         - 0.26600526775426508
         - 0.032467015589454015
         - -0.24199529104460349
         - -0.32803536320849658
         - 0.18503820422150508
         - 0.062563767077271751
         - 0.38699729512991621
         - 0.25873623361437126
         - 0.057809426036998839
         - -0.28512671729327765
         - 0.070621858678206209
         - 0.23825469492429305
         - 0.10870159101780311
         - -0.34856630983672537
         - 0.073809769803281494
         - -0.23170390398685492
         - -0.27854310684562433
         - -0.02420574554283958
         - 0.12926499675112416
         - -0.21781421882768218
         - 0.25488916347375978
         - -0.3422055105430532
         - 0.012485216126764277
         - 0.08914259178577974
         - 0.38392904989013271
         - -0.023966353696478315
         - -0.11764410247754535
         - 0.27191127018312633
         - -0.15219652602822706
         - 0.038607822128297983
         - 0.1093280809578903
         - 0.081855460606434241
         - 0.02114506242210672
         - 0.03319728802682153
         - 0.1200813083502757
         - 0.30584252460129818
         - 0.14495829211976916
         - 0.16926917356021973
         - -0.12763522519689402
         - 0.32487226411477038
         - 0.26902112208794093
         - 0.1265995572370365
         - 0.14385020099424978
         - -0.057143874052536507
         - -0.22602310324564068
         - -0.10179040349905454
         - -0.23428655676319399
         - -0.1945098849369663
         - -0.2676486331487643
         - -0.08525548809945814
         - -0.26855212897958525
         - -0.21459175198353442
         - -0.14149530659468712
         - 0.049477102649786386
         - -0.20614802011541497
         - 0.13833719965142968
         - 0.31946556109554247
         - -0.2191905379010208
         - -0.035066777140833436
         - 0.056335414390009581
         - 0.13060420459444491
         - -0.33179225800590845
         - 0.22061900013762278
         - -0.15635941350754515
         - 0.34787194713691449
         - -0.12391093020536788
         - 0.29751850069619823
         - 0.34214626759621009
         - 0.25271187568018966
         - 0.010029976357092412
         - -0.067644575112179806
         - 0.072882187095391224
         - -0.30062527561948699
         - -0.052398167904842273
         - 0.099410665273204218
         - 0.10421055136156414
         - -0.2292131242726608
         - -0.014801580319839589
         - -0.20931445192121301
         - -0.20370394398750211
         - 0.15375150095803786
         - -0.01391970582684555
         - -0.042236743805896808
         - 0.054748181759142735
         - 0.12905849966108768
         - -0.03617856122099971
         - 0.066337140103937556
         - -0.33153822120351484
         - -0.009103491381516178
         - -0.2067842338487384
         - 0.12868823145014391
         - 0.020377301537231489
         - -0.057403192826868267
         - 0.040620879706031926
         - -0.00074621195861449116
         - -0.21004234473040653
         - -0.12061241488196987
         - -0.0017834161526721318
         - 0.09972052680654632
         - 0.028300528630466219
         - -0.059171264208679804
         - -0.025828032440621509
         - -0.20886650547744251
         - 0.028249187386580051
         - 0.084753443185158053
         - 0.16402039478556354
         - -0.18897956050796813
         - -0.093436097987782768
         - -0.053730781916115869
         - -0.045962098320370792
         - 0.0033673804659595324
         - 0.10479377656157216
         - -0.0030944420529491678
         - -0.16769627777559684
         - 0.023963768153327025
         - 0.17952052439416202
         - 0.029566710048286489
         - 0.0071135057155167925
         - 0.13109562655434986
         - -0.073365180893503731
         - 0.021153091053517922
         - 0.096992928159803718
         - -0.025938509242881897
         - 0.13465062185917889
         - -0.047980477694903892
         - 0.068763959183925236
         - 0.0097686642757296317
         - -0.024784203704510323
         - -0.036595368837132256
         - -0.13517829236076176
         - 0.025407756799351599
         - 0.075889559230142123
         - -0.011612634701758433
         - -0.066673661939613313
         - 0.025571953387235204
         - -0.025545923991021516
         - -0.015864397077126165
         - -0.16742842382796216
         - 0.058109264470861594
         - 0.013400978080367519
         - -0.0074881333524832207
         - 0.067496313381385439
         - -0.11187284980282772
         - -0.006563655840705832
         - 0.0077370177820725262
         - 0.013959653911884
         - 0.07807414458261093
         - -0.062369808990584058
         - 0.12590819374836129
         - 0.24793755972380044
         - 0.17426836834483989
         - 0.0073905131513083587
         - 0.12267228863159207
         - 0.2003942550979588
         - -0.011522152490691755
         - 0.0013377856904728824
         - 0.20788940768193684
         - -0.085695305771671157
         - -0.12871466828917999
         - -0.120699933049373
         - 0.048435934167553464
         - -0.0075047295330561911
         - -0.2266840370541531
         - 0.062325998783417783
         - -0.059922909332930825
         - 0.049088445612145419
         - -0.0021222389923441472
         - -0.0074968290252534209
         - 0.063988764010792121
         - -0.15987206730258349
         - -0.10255479750901376
         - 0.073525888143164034
         - 0.043708400757443137
         - -0.01612800318123991
         - 0.19398446920180409
         - 0.016173420465568338
         - 0.01512707911777263
         - -0.038366143913926849
         - 0.073120956335606974
         - 0.38632972080876088
         - 0.0083905553924364384
         - -0.020419505683356331
         - -0.45689061885468746
         - 0.26548352245423723
         - 0.3968637132954152
         - -0.47478650890186885
         - -0.11851517271724479
         - 0.21141318456384817
         - -0.25480454322740176
         - -0.10219578074872651
         - 0.28081458493097494
         - -0.099415407754080948
         - -0.16984672726445857
         - -0.35038994480426588
         - 0.46736658417677035
         - 0.18610064773650734
         - -0.25147617495237562
         - -0.091921290143034545
         - -0.17985947092703866
         - 0.27991832128125516
         - -0.56677493398414613
         - -0.30899655636362605
         - -0.38418153692493845
         - 0.22029116200702484
         - -0.067829957097319551
         - -0.24431859641636075
         - -0.049269652207570007
         - 0.13003188245027894
         - -0.21799389445358031
         - -0.37208652801568903
         - -0.39163141526485401
         - -0.38669787669002342
         - -0.30439166979704613
         - -0.18990877496747369
         - -0.23033413789912055
         - -0.16633973718857817
         - -0.26025967768264624
         - -0.0024387810783888953
         - -0.28030463489638729
         - 0.37275117987223816
         - 0.11177951980730939
         - -0.17269716354058731
         - 0.081176819449396712
         - 0.35193059806708621
         - -0.43872831648814298
         - 0.47092460918095752
         - -0.14084349916190866
         - -0.25097136702806216
         - -0.28843322204532584
         - -0.13248170446799074
         - 0.27918450645135356
         - -0.30980433582132616
         - -0.043546350737800839
         - -0.31540050689468002
         - -0.26619479816841818
         - -0.30118061981814642
         - -0.31190690401253673
         - -0.21593124043945178
         - 0.21655977325653883
         - -0.051489506426711448
         - -0.48889459965660798
         - -0.31219896225018817
         - 0.41212015090555415
         - -0.38518847044676074
         - -0.20942520577354529
         - 0.099014609732002393
         - -0.2971134231166016
         - 0.29181911495214224
         - -0.05544176645597728
         - 0.36281622583100753
         - 0.021416008894909303
         - 0.041937056607976607
         - 0.079770748281748516
         - 0.17296520443861432
         - -0.073917045367449294
         - 0.22911814115801629
         - 0.38555496151047475
         - -0.34592117356109758
         - 0.13017751043493464
         - -0.4053000330810112
         - -0.2126650495544806
         - 0.5380957554711342
         - -0.2901117049752665
         - -0.23833752268507863
         - 0.045996570254393424
         - 0.23169780598146025
         - 0.15806099712468408
         - 0.15598896673998466
         - -0.48704022568407623
         - 0.410568539674731
         - -0.58037490598309949
         - 0.21300574366198538
         - -0.12325930746687366
         - -0.52315229401993379
         - 0.44419173035500065
         - -0.3555947496085014
         - 0.05253348039998805
         - 0.1877097751164376
         - 0.2531715473422631
         - -0.43192686284565318
         - 0.32265415621932347
         - 0.14324487120739682
         - 0.059407006332550145
         - -0.05773317642010458
         - -0.13767838019641276
         - -0.012999776187310795
         - 0.12093781182902356
         - -0.1073340270504807
         - -0.068684679987892655
         - 0.049229045874862883
         - 0.023554830220420094
         - -0.0026404757731285596
         - 0.10809078629070608
         - 0.0024679897803423587
         - -0.052364564920437534
         - 0.047093168543684907
         - 0.33871088703185931
         - 0.015015716646294613
         - 0.020406894401560433
         - -0.068047618909565899
         - 0.0013529832490360287
         - -0.011675063371853958
         - -0.055596474705366217
         - 0.06174182845607893
         - -0.16149148812453881
         - -0.026859179326585277
         - -0.031187700046069113
         - 0.049550639403100054
         - -0.028339497243176474
         - -0.0054807579528843939
         - -0.15129803882665055
         - -0.10379570020293925
         - -0.17353780346430606
         - 0.0074364003904586065
         - 0.05537250154440794
         - -0.015026181830864065
         - -0.0075558506507787853
         - -0.039428672425124142
         - 0.0074240188526357147
         - 0.050094421935232891
         - 0.014819367376998694
         - -0.018988210784914469
         - -0.031036323360514557
         - 0.15174825761138974
         - -0.011408199911231862
         - 0.2427313342800069
         - -0.088530987153813204
         - 0.24072172174505538
         - -0.0098363587942299508
         - -0.02740674431930579
         - -0.19064737020118017
         - 0.018268333405710477
         - 0.038129042483208704
         - -0.12992702192648115
         - 0.019813262394984515
         - 0.051388705637640711
         - 0.03418448847121771
         - -0.15974276324944123
         - 0.065675005765675407
         - 0.0032026511055349067
         - 0.049083211079461071
         - -0.026822359753546538
         - 0.11334421280288803
         - 0.017739328521948025
         - -0.0025997691165941346
         - -0.46144250503519624
         - -0.050773204245468793
         - 0.011316971450637149
         - 0.021117846948110149
         - -0.086316485175847404
         - 0.15375137177088652
         - -0.050995398100114692
         - 0.011112975080596792
         - -0.11115619010505051
         - 0.029644903137120631
         - 0.047370490659767908
         - -0.025464384110717303
         - 0.0029400328104175551
         - 0.059357306832846977
         - 0.017457217252832658
         - -0.077047764610714151
         - -0.15094548933223784
         - -0.070813386517781629
         - 0.35778248617291902
         - -0.0018527617302200013
         - 0.0039404031131983711
         - 0.079665611502987108
         - 0.11450032225119187
         - 0.065592641779514099
         - 0.10924800065865664
         - -0.059580943091609551
         - 0.22648512222572664
         - -0.34489031787663244
         - 0.0070478774724265563
         - -0.071746341832839303
         - -0.2548989857657929
         - 0.16603075218537913
         - 0.021593616780149025
         - 0.050779523198466743
         - 0.0082666634702001293
         - 0.035067509062720721
         - 0.10573516559384287
         - 0.3615916586944235
         - -0.27163478200534735
         - 0.58284282465046289
         - 0.41395046055348889
         - 0.37541839402085153
         - -0.025845358382082
         - -0.25349085997063969
         - 0.33492497234444107
         - -0.33368616095638415
         - 0.12020682758813651
         - -0.0055089914893572773
         - 0.57097905427624018
         - -0.23913678039167563
         - 0.3790613897784037
         - -0.24054251547862709
         - 0.18303505085764749
         - -0.3336040155135751
         - -0.31445032700827041
         - 0.098661319979919879
         - 0.44534676524558359
         - 0.22975006535035622
         - -0.13327835919292427
         - 0.10368386435376757
         - 0.19905974261385606
         - 0.33714608915986943
         - 0.085600001708020776
         - 0.52698965914595652
         - 0.023878194623985091
         - -0.098750164228898041
         - -0.43837243649459978
         - 0.28215382929403421
         - 0.43580324793482395
         - 0.24922119199802839
         - 0.16454618878414873
         - -0.028814599909678201
         - -0.22846707655933057
         - 0.061536415878046105
         - 0.21390922421529099
         - 0.10925515498845365
         - -0.21451953408352156
         - 0.095778363003520176
         - -0.22271926931129407
         - -0.51429489474757439
         - -0.41686946602243313
         - 0.018874682388405218
         - -0.29606014149663851
         - 0.079046006801192725
         - -0.32477411240752169
         - 0.026396408942779129
         - 0.049939447975730758
         - 0.1969632037206358
         - 0.0043768264321442331
         - -0.10395207049323926
         - 0.43931389080256006
         - -0.062518308486761806
         - -0.022687136172043206
         - 0.1318978289767431
         - 0.50948715634673392
         - 0.037292817384768549
         - 0.033356060795751145
         - 0.078870896304103516
         - 0.15609535888811646
         - 0.31529876053298683
         - 0.11224487166991316
         - -0.27231635807113935
         - 0.36230287124378979
         - 0.30414764788982146
         - 0.025169062364455038
         - 0.11864868610331476
         - -0.058349022673420313
         - -0.44871505237270204
         - -0.12342475827309947
         - -0.55469036444619557
         - -0.52308231997028787
         - -0.48292864008046749
         - -0.12229557580824209
         - -0.12502630609589144
         - -0.28457547807472217
         - -0.079091398543070249
         - 0.21938635019273336
         - -0.3617246201249526
         - 0.36665639674592199
         - 0.27707275632032163
         - -0.41891266944066485
         - 0.023903986695756833
         - 0.066395866745728865
         - 0.75006063219736596
         - -0.18966183766776604
         - 0.14295897277271863
         - -0.1389560949482006
         - 0.10541216828840662
         - -0.33927593806197043
         - 0.34937022304121307
         - 0.30831941347570457
         - 0.17281192649722416
         - 0.44642200044468178
         - -0.4070463681875291
         - 0.23997798021463712
         - -0.24599993919019922
         - -0.062168680990649643
         - 0.02394274689336244
         - 0.3964793593634216
         - -0.47149194819110296
         - -0.017806450778492657
         - -0.1589836584767092
         - -0.16212517133780896
         - -0.10606097231134079
         - -0.087501934472022161
         - -0.053636959230920607
         - -0.1037664867033004
         - 0.038783825392942027
         - -0.079082479959003402
         - 0.11959785465553169
         - -0.24315821032390983
         - 0.0021606410751280375
         - -0.2368217459118219
         - 0.029390504231161758
         - 0.11973633221602853
         - 0.045446510245114875
         - 0.17426008566558657
         - 0.10147512960473531
         - -0.12281133779575712
         - -0.15641941142532245
         - -0.12494610249834004
         - 0.075232735921237193
         - 0.11522973016044857
         - 0.0025866600981110798
         - -0.12219756931404359
         - -0.014181170007495681
         - 0.12399326806360966
         - 0.025442454262503793
         - 0.1294895402427407
         - -0.022593751054820168
         - 0.053130233872763541
         - 0.065917962370351177
         - 0.1991549305727483
         - 0.17110928262112884
         - 0.13203641789478932
         - 0.10528398711518606
         - -0.14711963395990943
         - 0.13693112243380981
         - 0.031712923731882517
         - 0.18888158876544336
         - -0.16495886196321238
         - 0.083558090763992357
         - 0.20707928053842545
         - -0.022223070086752304
         - -0.01015225386794638
         - 0.18503551289716222
         - -0.26333220411557595
         - 0.055043708494452726
         - 0.20911692846958574
         - 0.096192652758720035
         - 0.058904075837779499
         - -0.18650374709289311
         - 0.17757226603936846
         - 0.04511898974073817
         - 0.20943727795550834
         - 0.1273433889502541
         - -0.15888821968810954
         - 0.1343992840904831
         - 0.093764377043719885
         - -0.088828979701465069
         - -0.029664090061889008
         - 0.092092980827984797
         - 0.1476730101855315
         - -0.056416636305103803
         - 0.15769899356845338
         - -0.16241932888345972
         - -0.041125989667987688
         - 0.13486725514289927
         - -0.12506607951434101
         - 0.12646045015276294
         - -0.20866402326118941
         - 0.059014457228259654
         - 0.043015493656323713
         - 0.050360014952459876
         - -0.0013114579016349184
         - 0.061595131874296022
         - 0.12850856782613915
         - -0.044330657426018799
         - 0.13427329376931052
         - 0.044109059906864041
         - 0.033928671027184575
         - -0.13112206125954987
         - 0.040793038243515142
         - 0.069283766611960229
         - 0.10275131416242984
         - -0.22584546613493553
         - 0.085184350582115501
         - -0.065846757068988529
         - 0.010267015907553304
         - 0.22638389263507011
         - 0.015776368685415654
         - 0.053544508374522182
         - -0.10903488466051388
         - -0.027965611042528506
         - -0.038879106550997279
         - 0.11335629368321082
         - 0.11646217673030089
         - 0.057383537665609968
         - -0.10682849958031596
         - -0.076302278276078592
         - 0.055159729290904076
         - -0.10491949447321015
         - -0.074204188743555249
         - 0.18554271354039598
         - 0.10484341349977108
         - -0.27881495513242954
         - 0.019294347780359801
         - -0.050741054673876546
         - -0.25781877834532957
         - -0.041095482013003733
         - -0.0018498726288921558
         - -0.038449780382130032
         - 0.13061228516947873
         - 0.022797091371649095
         - 0.11895877466771815
         - -0.09608731937883265
         - -0.053433691232453027
         - 0.044024365234825343
         - -0.10735147922468839
         - -0.0099976565488871273
         - 0.11226045604469692
         - 0.084178394224309283
         - 0.0099396180378353641
         - -0.21263384645369116
         - -0.080203116724697876
         - -0.11232983919189829
         - 0.045561634271994382
         - 0.11210096214613859
         - -0.036343400889752762
         - -0.064897160666241016
         - -0.2004371321171593
         - 0.10271292257768291
         - -0.22052244712283886
         - -0.14391211840990928
         - -0.16054519038788001
         - 0.010947975265372402
         - -0.013934350913919031
         - -0.0034763990591424303
         - 0.12960111448966491
         - -0.029924064174403155
         - -0.080773864574647025
         - -0.029216611392594238
         - 0.11020367842485566
         - -0.12803287211037231
         - 0.049224641859394298
         - 0.011214864950630048
         - 0.088481325947843373
         - -0.16631375852354985
         - 0.22607370237211777
         - -0.010412636898239064
         - -0.027524837657659364
         - -0.1114262850890005
         - -0.01861766894967621
         - 0.0080512712933231596
         - -0.25077134798456019
         - -0.03234229008481368
         - -0.10638768561949674
         - -0.032987329144594617
         - -0.16831072457586077
         - -0.052315889733064329
         - -0.023153643939009788
         - 0.017647531341788422
         - 0.029088617450797074
         - -0.14685571437165612
         - -0.059195717991598118
         - 0.0053767201496047285
         - -0.25780240096169471
         - 0.12687425059535623
         - 0.03472145407378939
         - -0.052740238334188394
         - 0.022177185739096512
         - 0.039624094999391839
         - 0.061656578154230327
         - -0.053481869039314733
         - -0.099551811933412823
         - -0.13292588124117147
         - 0.0036859383442908937
         - -0.063854560238410935
         - -0.068864019589946535
         - 0.11839323846373387
         - 0.011132530340455823
         - 0.082054208564889528
         - -0.20166725923999956
         - 0.12794322648191928
         - 0.24315759779272492
         - -0.021692812649377342
         - -0.014192501421936975
         - 0.17861864460915017
         - -0.11475713604572338
         - 0.051683427272527102
         - 0.0088391366278427214
         - -0.27439352009398055
         - 0.040059888314943719
         - -0.247161164912482
         - 0.13033443249890006
         - 0.04061467607042607
         - -0.13235770684821324
         - -0.025842802828693619
         - -0.019995045140175097
         - -0.048443924758888236
         - 0.029726813306190182
         - 0.011923341949723694
         - -0.12816109784217561
         - 0.23556094846688233
         - 0.07983468504685183
         - 0.052167587711314599
         - 0.086354950361822183
         - 0.0029478302780915747
         - 0.1285321989827411
         - 0.039274148917007014
         - -0.17522865465052762
         - -0.13635297613569994
         - 0.12041754485412141
         - -0.18411920367894866
         - 0.22482784019360938
         - 0.0019637856696484951
         - 0.23423130226988961
         - -0.11692474626637447
         - -0.16790259446758293
         - 0.14856054435183869
         - 0.012607969876350947
         - -0.12155880048280047
         - 0.16038188813992968
         - 0.02717463917121268
         - 0.1240819516027041
         - -0.091767184325649412
         - -0.1280293122942375
         - 0.014711884076101647
         - 0.11758201688374363
         - 0.063939990830531243
         - -0.15673679709777066
         - -0.044219694249876887
         - -0.10034457330724357
         - 0.041204123058100846
         - 0.25528192867648858
         - -0.031782156343154823
         - -0.13701260674070964
         - -0.2672422546541891
         - -0.10269172209038789
         - -0.10083303031922461
         - 0.047364382421805476
         - -0.18113407221913225
         - -0.060619238992483435
         - -0.21817917082838728
         - 0.13813259546918655
         - -0.048328731544953242
         - 0.05461704539403224
         - 0.031181113053932275
         - 0.071656994625363624
         - -0.14632171189054283
         - 0.0065642402205746495
         - -0.031950226966330396
         - -0.23651188342796545
         - -0.0091286240970192434
         - -0.045811592061662375
         - 0.20048281388978295
         - 0.25168530303554598
         - -0.048983566104199745
         - -0.19662695796702376
         - -0.1528865790098862
         - 0.33398011644844611
         - -0.20325607611618743
         - -0.064908723977876309
         - 0.1278889716090231
         - 0.038838674152737458
         - 0.00043018324916536553
         - -0.12127647451605901
         - 0.014662527918664106
         - -0.014545913826070716
         - -0.035466284579143331
         - 0.060587359467828707
         - -0.11133980968130434
         - 0.10159900550581097
         - -0.056964560876286666
         - 0.16676776407568233
         - -0.083730574318427772
         - -0.16451867038661627
         - -0.050588603558107709
         - 0.061762921081615331
         - -0.031868707635290948
         - 0.014820854999535673
         - 0.012908480923308369
         - -0.14699052100315899
         - -0.12281519222985142
         - 0.27126872591904577
         - -0.034837233539875119
         - 0.18244428846621957
         - -0.13730206381706903
         - -0.097697896640354276
         - 0.045031058998769045
         - -0.0040920109315698153
         - 0.092677606592181841
         - 0.041482143525595913
         - -0.165214483487582
         - 0.1327577194136248
         - -0.23151136901727065
         - 0.13128665786413737
         - 0.03146409903840082
         - 0.024993107449325147
         - 0.050498895357503654
         - -0.14349905387947895
         - -0.070738748566330265
         - 0.10896697264357255
         - 0.15120053951006204
         - -0.10037284498907301
         - -0.038370498487745909
         - 0.058277689181478617
         - -0.18920151154455897
         - -0.10122577990746047
         - 0.066424526328004663
         - 0.085900193512632117
         - 0.034513460356195319
         - -0.1961622311321532
         - 0.079004012789377159
         - -0.026732471007838304
         - -0.020703387664914332
         - -0.16117733429690345
         - 0.0052434992195068697
         - -0.058428316731453753
         - 0.031315019975487336
         - 0.068395928435112996
         - 0.061697448403863125
         - 0.057503335914377826
         - 0.031152152988372359
         - -0.10089700702765697
         - -0.078719795812752402
         - -0.010401944771640793
         - -0.24915126736976312
         - 0.03755805761752689
         - 0.016653888423438894
         - -0.034492072457926265
         - -0.12994473235074808
         - -0.056138866186944608
         - 0.013528797607941935
         - -0.035302686754684592
         - -0.019634419789857076
         - 0.12411358424431269
         - -0.0073671620224776569
         - -0.079352338713572335
         - -0.057320707126281678
         - 0.0040273090593590114
         - -0.021952757915545681
         - -0.022606652622100317
         - 0.015761151835622329
         - 0.031741546831610651
         - 0.015568192475402105
         - 0.035765061589961608
         - 0.11871174982923198
         - 0.09452540036318155
         - -0.0089358194085413876
         - 0.088086593443476024
         - -0.22564995550647898
         - -0.016786224157660255
         - -0.019234533291249724
         - -0.011062906691416786
         - -0.029928446152814172
         - -0.022595277871555547
         - -0.037746572068677139
         - 0.25798731684968729
         - -0.014921748301699487
         - 0.027751311168137421
         - -0.0018827116591558068
         - 0.19055119597745554
         - -0.05909975444210714
         - -0.0038840176383996396
         - 0.002803390315920935
         - -0.046895211374312615
         - -0.084566594725086305
         - -0.042023062414416404
         - 0.043127142877998369
         - 0.038675671224635055
         - -0.068268370512962959
         - -0.0013451920364655015
         - 0.0031388497165876789
         - -0.056408171359740286
         - 0.17826714175583619
         - -0.075885723647552625
         - 0.17813184924783731
         - 0.30369567818526622
         - 0.20223556396625367
         - 0.027531767917978428
         - 0.031141386134643192
         - 0.085788952649144823
         - 0.14566373907753899
         - 0.023189981625999175
         - 0.37201274668042289
         - 0.16003527098852782
         - -0.019865039053377317
         - 0.10980013595519604
         - -0.057261165429968328
         - 0.022414439457459915
         - -0.077917669360443781
         - 0.038426080962904785
         - -0.01576056859962624
         - 0.036675065218707073
         - -0.14181494517838966
         - 0.11478599465807263
         - -0.070437853690698091
         - 0.019377654467238072
         - -0.038919910387495336
         - -0.018799082233908783
         - -0.031596248641060538
         - 0.033279316342406523
         - 0.052873663790984078
         - 0.036993337222264652
         - 0.014376172269604833
         - -0.090758584754813104
         - -0.17908539748176597
         - -0.02500498220386195
         - -0.048488453580465274
         - -0.06374099881105684
         - -0.0057061731733709905
         - -0.077826160764740068
         - 0.00015106777251114596
         - -0.090980482752680072
         - -0.028621686105830064
         - -0.048925846578762304
         - 0.12351984481565915
         - -0.16269373195738954
         - 0.12714961572257075
         - -0.03429873688792192
         - -0.031919803505675817
         - -0.019155514765842326
         - 0.026961024465316525
         - 0.09658984064574995
         - 0.0088373201763589856
         - -0.12584890101785462
         - -0.04664361562623405
         - -0.0098734812328496856
         - -0.0033717807298261201
         - -0.0013788506826872384
         - -0.043290536878318811
         - -0.050207324917344552
         - -0.0080283090423128242
         - 0.093665098844109534
         - -0.02525595776254963
         - 0.0092306332995600593
         - -0.066952503746362843
         - -0.01515421078678118
         - 0.028100882076268322
         - 0.0028118827051588397
         - 0.14256253536205107
         - -0.024155004844861775
         - 0.024287620344089707
         - -0.25116154140289376
         - 0.050891936523069767
         - 0.040007677293335056
         - 0.011444534974682929
         - -0.012881321386313715
         - -0.01688433042246943
         - 0.041867330202982098
         - 0.024231033613593609
         - 0.058002791235436217
         - -0.021464566448644262
         - 0.0027676984260589081
         - -0.030715653018240294
         - 0.063006416091639206
         - -0.058640968256861312
         - -0.007002854116639712
         - -0.043725535206839798
         - -0.0068024692608507293
         - -0.025051187546450214
         - 0.035516656965820181
         - 0.014203759559841451
         - -0.05181551149472554
         - 0.08118883967569139
         - -0.017727070104836422
         - -0.046469058585510779
         - -0.02861486236913002
         - 0.10283718647011567
         - -0.015374467601921038
         - -0.056692136414160647
         - -0.062994082583706576
         - -0.067231366073809459
         - 0.019334371231927515
         - -0.0054807781661323296
         - -0.019498322515608769
         - -0.047818028379301818
         - -0.051504410190575486
         - -0.029931227996421561
         - 0.14607625124505394
         - 0.068549916845358883
         - -0.0024485906168585235
         - -0.0015261179525338452
         - 0.17685051979995101
         - -0.0046791760189577591
         - -0.026087196899411247
         - 0.053780257515278498
         - -0.066038824948978475
         - -0.094787361494476377
         - -0.058584479452393458
         - 0.098910567637213537
         - 0.0061019552378139032
         - 0.029402331043120872
         - 0.10690556687529561
         - -0.026798082840415908
         - 0.020798669122670126
         - -0.044914952972872915
         - 0.00088443558327919983
         - 0.000179313835405473
         - 0.052473936171922371
         - -0.027884835907061208
         - -0.098220623872691523
         - -0.014487515011882028
         - -0.0094970719625508335
         - 0.037873345368968636
         - -0.025195449821553594
         - -0.070132296390345322
         - -0.080704160175933251
         - -0.030841994023232809
         - -0.15937596002462978
         - -0.075401165918313223
         - -0.064931749150698367
         - 0.27482562083157147
         - -0.064099215213208854
         - -0.19314497415369647
         - 0.32297744483890972
         - 0.019392585601889837
         - -0.01115169513044649
         - 0.10514802605201307
         - -0.12478311130455168
         - -0.08131257587622448
         - -0.1023840575886843
         - 0.051851034413854503
         - 0.13650012523500613
         - -0.19341950385511389
         - 0.0073941310247707705
         - 0.058748403780949532
         - -0.048774040685102084
         - -0.0014370801655263319
         - -0.1000029235774391
         - 0.26649580849341054
         - 0.10258501409586475
         - 0.11839803275622822
         - 0.0096855258853990808
         - 0.0028225288088158974
         - 0.069491118845553729
         - 0.014380202068003806
         - 0.11203537698953771
         - -0.038778875777534097
         - 0.30357602297332659
         - 0.099333977086941638
         - 0.12713394046714813
         - 0.058855322261366659
         - 0.048066188090364462
         - 0.073840678413022748
         - -0.084457084072674563
         - 0.021973434772401837
         - 0.063394619290461432
         - 0.11472100159283098
         - -0.11856676035489587
         - 0.0092859123904196102
         - -0.020649527657078379
         - -0.021551836309182143
         - -0.099534998862739046
         - 0.18313540724555508
         - -0.15478720456365527
         - 0.042982118750787827
         - 0.12470158221875094
         - 0.14857703633133632
         - 0.056190524025004893
         - -0.11643803804648685
         - 0.15763579775029155
         - 0.0065945960463922315
         - 0.20252356735273194
         - 0.070376099901159866
         - 0.19840779130146807
         - 0.16666352365232798
         - 0.075302816084708957
         - -0.0012882303476475796
         - -0.038430899838429601
         - 0.33246986688526203
         - 0.13881817993626464
         - -0.23474316424387717
         - 0.17748452035869713
         - -0.022248529418549812
         - -0.0044691607983443401
         - 0.098054643157171106
         - -0.011203927501044013
         - -0.11334911077550261
         - -0.058041131593405619
         - 0.037397671807357202
         - 0.025501570067998768
         - 0.018653709204259322
         - -0.063890071978172272
         - 0.038394854049657555
         - 0.080924743245649286
         - -0.17768807536909456
         - 0.083945854988521348
         - 0.036924061298701655
         - 0.29061029699826918
         - -0.078040897419050154
         - -0.25574253218478443
         - 0.11308191815153365
         - 0.037502574002875606
         - -0.17619648505512678
         - 0.02270635563440538
         - -4.9861916530264331e-05
         - -0.040021459174633241
         - 0.18610090815026259
         - -0.1648694094567125
         - 0.38333090181631835
         - 0.036303580175407982
         - -0.015925482385316412
         - 0.28768303221065999
         - -0.17963202262083205
         - 0.087430747697100394
         - 0.014373788901321318
         - -0.076126703157280554
         - 0.0059916848446791675
         - 0.25208568640119067
         - -0.20319188491069506
         - 0.12768369170731
         - 0.075232486622010805
         - 0.011054674434608698
         - -0.22560113047933311
         - 0.01897766302662943
         - 0.14699107685920865
         - -0.26336724489247243
         - -0.070706846423545286
         - 0.022352288378893505
         - 0.085260188080761065
         - -0.11084231732050318
         - 0.004368090269798521
         - -0.015958817532315477
         - -0.084798780206197494
         - 0.053360790181053837
         - 0.16735011016977977
         - 0.028182027472985958
         - 0.049839387102129679
         - -0.035848817420379292
         - -0.0090046458700805652
         - -0.014682940994744742
         - -0.046736541589366271
         - 0.02571441816022008
         - -0.067389206981925229
         - -0.018747130868673179
         - 0.092144580305619325
         - 0.024885230727764506
         - -0.054946057614304815
         - -0.036435836796533977
         - 0.16623644267501606
         - -0.057520012258843303
         - 0.028369302527146024
         - 0.054858422927738473
         - 0.054962309176449634
         - -0.013533367111485022
         - 0.033142617375390974
         - 0.10631753074469204
         - 0.045407944846220197
         - -0.1314477396249098
         - 0.15076194588067326
         - -0.037235340965881859
         - 0.0084249177306938653
         - -0.0030496027552773777
         - -0.0086160760405131192
         - -0.011659663621631757
         - 0.14370504284448479
         - -0.10323284258036469
         - 0.031030435931296358
         - 0.18478998963498219
         - 0.050186487749836209
         - 0.037592185345816931
         - -0.098796100519500593
         - -0.0013162735252022575
         - 0.015436888759738041
         - 0.074403721934659287
         - 0.052385546642202185
         - -0.073775248858022099
         - 0.028391828258960937
         - 0.038414648597552919
         - -0.022595184050012276
         - 0.10254889792324338
         - -0.28782527457124818
         - 0.065706617842492196
         - 0.19562974782337428
         - 0.072088387236660778
         - 0.02352246428286682
         - 0.016034943399544296
         - 0.029434992114585671
         - -0.036805958642950456
         - -0.05888244319379958
         - -0.097978710906543837
         - -0.028006453911904074
         - -0.21869474302448677
         - -0.024668557031997794
         - 0.015379768038281109
         - -0.071366170934293621
         - -0.10011522807270587
         - 0.01708045413065621
         - 0.014256370797654495
         - -0.2165675739475435
         - -0.05932077604498194
         - 0.10890581467299765
         - 0.29194977976629449
         - 0.021021364603304317
         - 0.035642962785769963
         - 0.10279576696244974
         - -0.074511123320312636
         - 0.06548583392742835
         - -0.029031492456448406
         - 0.12688178711595272
         - 0.05019263949900403
         - -0.26915062838062792
         - 0.065443623091248654
         - 0.056094254404992452
         - -0.21829406182747926
         - 0.25278162084866646
         - -0.0066946891482976886
         - -0.11585495954009598
         - -0.022615088091343681
         - 0.029259773567349594
         - -0.28462932571093691
         - 0.022607369374033959
         - 0.20453211621125666
         - 0.1278516430463715
         - 0.013361500711666512
         - -0.12817972868998664
         - 0.14362645501736102
         - 0.20537846863837639
         - -0.21297824907439325
         - -0.20832617983987281
         - 0.1758029739748668
         - -0.19566784382262428
         - 0.098896529578016049
         - 0.082799878299276361
         - 0.10851161024074019
         - -0.19962777751233871
         - -0.16781833092492918
         - 0.21097477138000184
         - 0.0076909589449856283
         - -0.14615111263421871
         - 0.10891457873699383
         - -0.04745966821179002
         - 0.14671878178392311
         - -0.15996027564266807
         - -0.15586990428812234
         - -0.0095363208029224378
         - 0.17189748366866719
         - 0.081061340313918026
         - -0.14728890357181285
         - -0.053147481013689352
         - 0.062827164353867163
         - -0.10803436787605147
         - -0.10987859834630286
         - -0.049226183392529696
         - -0.13988860603760289
         - -0.22050073192147668
         - -0.18734281299525232
         - -0.14210904248447492
         - -0.0016152241558887669
         - -0.1704323120583818
         - -0.063235474246786438
         - -0.14817858372043097
         - 0.1714199803745538
         - -0.057986704196252056
         - -0.15730762584392075
         - 0.041442563011258836
         - 0.015088970364620268
         - -0.11839202216551807
         - 0.11999435542913681
         - -0.083771383028134153
         - -0.17595680381123038
         - -0.17378408386421129
         - -0.08098340663510796
         - 0.15839073669322024
         - -0.12702010938462668
         - -0.042282894753577875
         - -0.10131555679547645
         - -0.14994160892362671
         - -0.15619783994074618
         - -0.14078607316024228
         - -0.13127542186672511
         - 0.14599277408121641
         - 0.042303868855592355
         - -0.17218165058246518
         - -0.13434108299234082
         - 0.19205071744332405
         - 0.039828038610259589
         - -0.023164522800523463
         - 0.054599012634149478
         - -0.13933179895200037
         - 0.16011234749838393
         - -0.011059191111549689
         - 0.15486981624481247
         - -0.11365556971759619
         - -0.050588597369549688
         - -0.15553315254345726
         - 0.078228460105664227
         - -0.14713292199454794
         - 0.034467236189769955
         - 0.13929213077967778
         - -0.22416661649170022
         - -0.026150702011178136
         - -0.17270059663494511
         - -0.00023296288788851369
         - 0.21538321415516753
         - -0.16009222203563322
         - -0.14730095878071064
         - -0.033025522826835498
         - 0.012640711001855836
         - 0.14886145393857453
         - 0.049285959261749654
         - -0.14014314144192769
         - 0.14059789350360824
         - -0.28271357085126048
         - 0.23120803777295815
         - 0.010363473710464553
         - -0.12677415603462655
         - 0.22451961616995456
         - -0.18068318017636267
         - -0.078041394672578021
         - 0.12299667153004762
         - 0.17680427750045774
         - -0.14537782273938274
         - 0.10127545894317541
         - -0.21814445764477797
         - 0.15306347005598864
         - -0.076891121322753955
         - 0.23019811584069699
         - -0.18239777417256395
         - -0.19345299441634609
         - 0.26772907432150184
         - 0.023473435995657502
         - -0.15035739875290899
         - 0.12999965107267761
         - 0.046243193726536833
         - -0.037938278106865966
         - -0.13830725849165335
         - 0.17807247505816454
         - 0.069331160988082022
         - -0.29695593518594177
         - -0.071019845003432419
         - 0.060412706414077262
         - 0.082031794825887364
         - 0.03966358548347243
         - -0.052686072839548619
         - 0.11667106804866878
         - 0.068203332866977023
         - 0.12472169183832316
         - -0.11732625528885249
         - 0.14819099303306724
         - 0.17665293967252421
         - 0.10525133230645407
         - -0.10378561170513766
         - -0.14895057094365033
         - 0.11913857691962865
         - 0.17997131825342835
         - 0.017645202314827236
         - 0.153367600627107
         - 0.26003124973590525
         - 0.059244212696508959
         - 0.031759666219182532
         - 0.085009117087643943
         - 0.10656950407671582
         - 0.098034050506166037
         - -0.012894507514684472
         - -0.17439399902396341
         - -0.0093163502901659791
         - -0.08693414120060558
         - -0.20634749414879025
         - 0.057829774471859857
         - -0.090399759752256142
         - 0.047829749253813107
         - 0.10631222581148782
         - 0.16206651018808452
         - 0.070217663158357826
         - -0.074783280417065182
         - 0.090930754810356729
         - 0.085077501264406399
         - 0.25406898622166341
         - 0.069129480512088656
         - 0.12514013872235993
         - 0.21363112634842282
         - 0.064744013359643721
         - -0.12150739753717041
         - 0.018934300647195111
         - 0.17765409711305316
         - 0.036377098185578827
         - -0.20861205395144081
         - 0.16718464301739527
         - 0.046311036083462299
         - -0.077675711452006344
         - 0.047051474757817263
         - -0.064779730355185958
         - -0.036938084789204233
         - -0.12168777751143459
         - -0.042348573610174696
         - -0.03503178844124237
         - -0.15931740634142647
         - -0.08417170349608924
         - 0.20478878029736924
         - -0.041692257816717149
         - -0.18195423032634214
         - 0.056517480198526183
         - -0.11163917807084302
         - 0.060581442723992941
         - -0.0061735962508734348
         - -0.29442780119395245
         - 0.15307514618898643
         - 0.076262986394497981
         - 0.17625304808252867
         - -0.013439268637374187
         - -0.15264715302555915
         - -0.073411577361992969
         - -0.14848832699143955
         - -0.22504154818987226
         - 0.32643003844801866
         - -0.21336598339817978
         - -0.024597181603818775
         - 0.24894094700701352
         - -0.2789848082728269
         - 0.041547761599787632
         - -0.025900126744645039
         - -0.069144738582323756
         - -0.1266153620022992
         - -0.01248827473923516
         - -0.14000082621611276
         - 0.11816182568438867
         - -0.067172966113992288
         - -0.13229819511070856
         - -0.19704675237652219
         - 0.03225990807193628
         - 0.12880676605483596
         - -0.20333445426846594
         - 0.086345124530536332
         - -0.0035172473591315884
         - -0.0077888135044814301
         - -0.29614411881255193
         - 0.22713477157172648
         - 0.0081497110582581418
         - 0.059868530258590832
         - -0.076913753221709721
         - 0.16181230590181031
         - 0.16378549860756222
         - -0.056043460151694931
         - -0.12009447525223366
         - -0.10678087044760173
         - 0.045343507375727177
         - -0.21064130032667813
         - -0.086391150668257533
         - -0.24010600065096388
         - 0.073761787724593228
         - -0.1073032214238899
         - -0.044851948469990952
         - 0.0038515073759959723
         - 0.13502289070461976
         - -0.27550620533096448
         - -0.47014516148731111
         - -0.2185917506060257
         - -0.14237892518937365
         - -0.031766692949950319
         - 0.10798830425239239
         - -0.032604137505381291
         - -0.32762736033652212
         - -0.023254765532615893
         - 0.061595187562187501
         - -0.069018614690192867
         - 0.1370173898713965
         - 0.11372394297238457
         - 0.14754456979368419
         - 0.032695893138906543
         - 0.11620369423790237
         - -0.20980474105385422
         - 0.35222818326494054
         - -0.026783691988704329
         - -0.050780134271083896
         - -0.22213838206392689
         - -0.013719574636741163
         - 0.055997653698766546
         - -0.37022468625850941
         - -0.026364906148891917
         - -0.036259894852231654
         - -0.042688112616886903
         - -0.40689820795528581
         - -0.020151206046730111
         - -0.05101065526059987
         - -0.015400147558049929
         - -0.097214008188566903
         - -0.13333266972362726
         - -0.075070936288831935
         - 0.13052904343051483
         - -0.16584540478881601
         - -0.068890339259531516
         - 0.035417920359501108
         - -0.0825661479117899
         - 0.059301574510770172
         - 0.2486881423809173
         - 0.055257975407956281
         - 0.13542923764480078
         - 0.25205857941396081
         - 0.054704418358356238
         - 0.045543090579824107
         - 0.0081593702293836882
         - 0.25641169816098131
         - 0.1599776065096889
         - -0.0776976999835986
         - 0.21315417126565381
         - -0.46572009124095842
         - -0.085686804636053215
         - 0.26651934516941334
         - -0.038714766052289823
         - -0.0358600920262988
         - -0.090301412495885414
         - 0.12047380844707288
         - -0.019780200650332227
         - 0.035452930518014326
         - -0.21676735592815358
         - 0.16162116686430572
         - -0.27728326415816573
         - -0.015945422155848699
         - -0.058952361988584383
         - -0.24828402242691802
         - 0.20539826536496641
         - -0.071891523496934118
         - 0.14036528078506458
         - 0.03299261257106513
         - 0.02242660164504915
         - -0.15579714810392459
         - 0.21570457232251833
         - -0.01105674604976579
         - -0.23169353030726433
         - 0.040089543914991629
         - -0.13362752934456709
         - -0.066307473553984003
         - 0.010637500547532375
         - -0.14398460448601336
         - 0.18074776243208773
         - 0.035627840564543982
         - -0.0049577926698110746
         - -0.10429090538542217
         - -0.18645428995114222
         - -0.32214527850000574
         - 0.086175024655799029
         - -0.09083487232253333
         - 0.084402547491724475
         - -0.052749342189206821
         - -0.040119784820739919
         - -0.15658824609668262
         - 0.059398440269892258
         - 0.046559710071335914
         - -0.059949240683639556
         - -0.061886167919739228
         - -0.0062753671344090546
         - -0.014084309374193027
         - -0.1244494149078412
         - 0.025216553799821618
         - -0.046578013867466579
         - 0.02542941661862862
         - 0.24607625542370934
         - -0.16945137996937421
         - 0.18081507505149746
         - 0.0083355787190706413
         - -0.0026563062912767187
         - 0.1872351922947677
         - -0.0012361747388415379
         - 0.24223804031336604
         - -0.044116406378191121
         - -0.13670298806366082
         - -0.039674299093273531
         - 0.018734992056294298
         - 0.12090650960526947
         - 0.15887608321861807
         - 0.012124710630165176
         - -0.085545304021714827
         - 0.11985790924511723
         - -0.23566449405126361
         - 0.0074887714523456921
         - -0.061874368536741518
         - -0.0050975599611623882
         - -0.0046260931342036416
         - 0.051063268967858642
         - -0.054777041042252603
         - -0.036316980847134743
         - 0.12834233768720246
         - -0.029304517232237086
         - -0.036078097220876432
         - 0.029307245857431934
         - 0.0046875184078948463
         - 0.015218716754159216
         - 0.097004132938039167
         - -0.060861153966497515
         - 0.0077166679502478144
         - 0.024396525301348782
         - 0.16557511987284049
         - 0.13825364709354476
         - 0.0163220213283327
         - -0.0067658419051083284
         - 0.053065324117606026
         - 0.3047162039371682
         - 0.092065586695741455
         - 0.17018619468246399
         - 0.061006769514330088
         - 0.14047520270004599
         - -0.056300313935008506
         - -0.055513222044184081
         - -0.2499042791829458
         - -0.016212395545539836
         - -0.05288993974599198
         - 0.027792755439521793
         - -0.065833277487270067
         - 0.19582468473570577
         - 0.049506904562010817
         - 0.019196068135395386
         - -0.00070917894124680064
         - -0.23933939519169256
         - -0.25732403749836452
         - 0.064656634692076109
         - -0.084362220371475533
         - 0.12386191713535764
         - -0.052394376581791961
         - -0.079123104855042939
         - -0.16264741278504113
         - 0.090576513031604008
         - -0.15719061458378239
         - 0.03686070770305027
         - -0.086167253822200557
         - -0.04129878283902743
         - 0.030243591872668351
         - 0.037371563845034088
         - -0.22911508305890857
         - 0.11784308332232339
         - 0.025362326445402802
         - -0.073614361967464334
         - -0.060793875530124837
         - -0.18860077002043815
         - -0.085305906973162135
         - -0.0015301290630735564
         - 0.029673096995124767
         - 0.015799202463010885
         - -0.050192159749179288
         - 0.063408162575258484
         - 0.022527899384356061
         - 0.064486968010507212
         - 0.00085765650195109922
         - -0.065857892933626219
         - 0.15741663950913237
         - -0.017380436535780825
         - 0.12361271687196622
         - 0.1116895785650118
         - -0.083997007143467556
         - -0.083264844410966418
         - -0.079305095642128218
         - 0.089080124658209942
         - 0.12414674687039375
         - 0.011787769675406946
         - -0.10938628418293027
         - -0.1307851501948093
         - 0.10704550618520743
         - 0.055948684529063097
         - 0.20193813759384294
         - -0.1940088487391804
         - -0.11774182883277534
         - -0.062157172278242967
         - 0.059842968004556157
         - 0.12707329366203599
         - -0.023829399026943591
         - 0.076812484127638664
         - -0.23259668471772441
         - 0.12566400405910064
         - 0.065909167369245847
         - 0.1307271377904041
         - -0.077400975571496083
         - 0.14925628409528735
         - 0.055914704770245544
         - -0.027985957777691122
         - 0.10059720784726976
         - 0.045837982959341918
         - 0.073091118657655496
         - 0.0016171321541335857
         - 0.15885047280522721
         - -0.015283098261216195
         - 0.034532020330284116
         - -0.19431027387680419
         - -0.20096911358728065
         - 0.052200269563945134
         - 0.08668551194069346
         - 0.12328310234250188
         - -0.31394482223942211
         - 0.098735871795773172
         - 0.049924520981386784
         - -0.093611100280059034
         - -0.093145140803645193
         - -0.015124489244653866
         - 0.091847718936619735
         - -0.042611031317276893
         - -0.19218762139961013
         - -0.13110047903305194
         - -0.054923828050633249
         - 0.074335520890844081
         - -0.13025701691319458
         - 0.16457416366655817
         - -0.14319099827167689
         - 0.072020317718836283
         - 0.13152648133400785
         - 0.072480524923754147
         - 0.018400646887987208
         - -0.016800977546403834
         - 0.23366812244635166
         - 0.022214542714217699
         - 0.16376918728035633
         - 0.20278452264484201
         - -0.18663768090387844
         - -0.16062294125353135
         - 0.010814746637793977
         - 0.033819530063570219
         - 0.068419529003538843
         - -0.26487990210192253
         - 0.15713086743712684
         - -0.059030952303481252
         - 0.063703070572188131
         - 0.042503159587703572
         - 0.001282344102037596
         - 0.028428135819198355
         - 0.10340462520442778
         - -0.074952831209275678
         - 0.051648765645412528
         - 0.09870657708592688
         - 0.12059742648514504
         - 0.08927841673542504
         - -0.048788238374176666
         - -0.080852826863531777
         - 0.12440458856974637
         - 0.085950138659213596
         - 0.18310369577803454
         - -0.17813219185369147
         - -0.034733793061394361
         - -0.24972821973400453
         - -0.10441385339086787
         - 0.22782020500571948
         - -0.18881290242710189
         - 0.10286484824143345
         - -0.11463230724929095
         - -0.011780796562094065
         - -0.076142536256622817
         - 0.12686913401051067
         - -0.19543822051123955
         - 0.066219964867902922
         - -0.13535058009689427
         - 0.13261484891543038
         - 0.092882202782212805
         - -0.072694567174832081
         - -0.13744686782774568
         - -0.15506735556237186
         - 0.12368556753837021
         - -0.26052299023448428
         - -0.14984200624120109
         - -0.27864994297704809
         - -0.096663721792087376
         - -0.096691940416666705
         - -0.015695941077261664
         - 0.098063619390114681
         - 0.15812451582101897
         - -0.37764065540143132
         - -0.42930336792052898
         - -0.22754569610087433
         - -0.31528848653550812
         - 0.088316661273211583
         - 0.021044183540574867
         - -0.088520715394809976
         - -0.37847553726636463
         - -0.0073834781357331267
         - 0.1621093850214777
         - -0.05816917159352325
         - 0.26712802767237975
         - 0.20341403757865409
         - 0.16474113870382362
         - -0.025654612037679766
         - 0.14810450995445784
         - -0.31118029952545551
         - 0.45302582396270041
         - -0.076405117399297548
         - -0.098086321545783978
         - -0.19004555566675524
         - -0.048145589591324971
         - 0.095445389405340961
         - -0.46831966005803027
         - 0.042328985465666914
         - 0.24293657929105145
         - -0.093511108941108631
         - -0.28312626785082662
         - 0.051819325618479274
         - -0.088760904410253139
         - -0.061992614234979856
         - -0.18888763120176782
         - -0.36020866409103885
         - -0.21064674118705112
         - 0.28791464340331074
         - -0.33643719139973538
         - -0.13229071639973067
         - -0.019687524278403833
         - -0.18969158883506276
         - -0.023581819407659008
         - 0.040401452436216727
         - 0.016987024987640792
         - 0.074739475098389227
         - 0.074580473281209952
         - 0.080997322773954786
         - 0.07970077896183865
         - 0.06308288065049783
         - 0.24961814390172177
         - 0.23818685973100803
         - -0.12898875150240388
         - 0.010154325437148748
         - -0.36301234217194223
         - -0.18866618166960314
         - 0.15326538688944438
         - 0.031691737658940997
         - -0.029072611482104826
         - -0.26388433012695128
         - 0.13965055578856467
         - -0.11054106214028442
         - 0.095823011724893548
         - -0.32884919994692369
         - 0.14408856546740573
         - -0.19368095489708292
         - -0.1391879465585058
         - -0.15813441751453766
         - -0.26904479249002183
         - 0.22917560642463961
         - -0.15122578728344335
         - 0.21378520271241414
         - 0.10564577418946712
         - -0.10685615358856958
         - -0.44334014250059661
         - 0.43212757722430811
         - -0.34031954804548586
         - 0.1362885674793016
         - 0.18182267916687994
         - 0.57386096687241372
         - -0.070474002599593702
         - -0.40898393330205762
         - 0.26866964511332492
         - -0.17144691581026944
         - 0.064100548155641937
         - 0.059681589964547276
         - 0.20019221596714518
         - -0.10397471466107666
         - 0.086825609455361913
         - -0.099281211374774497
         - 0.085489649820625138
         - -0.40326864874071522
         - -0.21686606666365726
         - 0.085025826183727546
         - 0.17239749176423147
         - 0.25421451210768353
         - -0.12206871774427132
         - 0.33926923207800608
         - 0.14327980732386006
         - 0.31934071313297985
         - 0.097488718950471273
         - 0.13928872265884631
         - 0.073989119063254366
         - -0.093800400941036671
         - -0.081335373916091608
         - 0.37179274711311194
         - 0.36011860268479196
         - 0.26709646022064965
         - 0.26815412624185958
         - 0.057065520715731288
         - -0.24202062055995893
         - 0.085478189634395574
         - 0.15824656972276621
         - 0.013110054698845498
         - -0.1666043284712824
         - 0.050465216238398419
         - -0.22699900267647233
         - -0.201497106626466
         - -0.22942777512988005
         - 0.064613249497922076
         - -0.28100509194219658
         - 0.26626858301762268
         - -0.46365083626231723
         - 0.0080773983948391852
         - 0.038216318716428173
         - 0.11728160338460038
         - -0.0073237967928430668
         - -0.048649907349550173
         - 0.48106233595875408
         - -0.067204177842487486
         - 0.13221840120376499
         - 0.11199204598949825
         - 0.36039929441858448
         - 0.12754702716742608
         - 0.045057426242597044
         - 0.087924324275929847
         - 0.13703476859586589
         - 0.51563605565549797
         - 0.18372467962451647
         - -0.3287668834709665
         - 0.26609712354440956
         - 0.22287340398502464
         - 0.031664254657998027
         - 0.16496848698650088
         - 0.025189754362474035
         - -0.37652670892660778
         - 0.018499063793908109
         - -0.19298281975981896
         - -0.11017778024246441
         - -0.19996523362842353
         - -0.050317884611002756
         - -0.12239735410042235
         - -0.1828452076985278
         - -0.2356042546581455
         - 0.11733672883141512
         - -0.24952198507349913
         - 0.40457580242419128
         - 0.23397147327034318
         - -0.50275272680976568
         - 0.069164310631430623
         - 0.048123982587646011
         - 0.15452340991819902
         - -0.17080242583151817
         - 0.0640855377441268
         - -0.074002003788506562
         - 0.35052343623460497
         - -0.33783100389823817
         - 0.6328641778447337
         - 0.15798433332479303
         - 0.12435566152499342
         - 0.53018190314683289
         - -0.49054860085939866
         - 0.15100775468202951
         - -0.17820422857009549
         - -0.062418418006914625
         - -0.0008166439473127374
         - 0.49437300308970505
         - -0.42170743595705285
         - 0.11950668502475979
         - -0.10727842381448953
         - 0.11468787715909542
         - -0.12213280658996702
         - -0.084699333989684683
         - 0.11881377619562257
         - -0.21725436752355987
         - 0.045108931706295138
         - -0.075307134080526986
         - 0.036725861523812138
         - 0.061548838247211475
         - 0.015329820451950953
         - -0.20504655667425586
         - 0.073691048705892631
         - -0.027661020891917656
         - 0.23809494763655492
         - 0.031142962970860062
         - -0.010066664816726752
         - -0.022858982608777764
         - -0.02945328080038874
         - 0.055389997501592382
         - -0.18173241016797903
         - -0.074623035458426315
         - -0.14172939790647859
         - -0.035217550332026601
         - -0.081161028827396786
         - 0.039886720295424283
         - -0.0075874488390383459
         - 0.059129709750539702
         - 0.051917282694280593
         - -0.30558712111790992
         - -0.036416715827391949
         - -0.14162514255046607
         - 0.038664024140838069
         - 0.13010335125518682
         - -0.007247465657866649
         - 0.031681281048682508
         - 0.037829333971018328
         - -0.047103321279302647
         - -0.019084809831640633
         - 0.10280387185871045
         - 0.11177340584837396
         - 0.21793783302112535
         - -0.00018093026066653861
         - 0.13786455396308481
         - -0.099510263946172448
         - 0.20741337443594027
         - -0.012142639327808367
         - -0.02668838853615968
         - -0.065716376805225296
         - -0.018218420105526711
         - 0.0049984222509988708
         - -0.22102592869279875
         - -0.011241756248094965
         - 0.1534961917995738
         - -0.0099494506578876006
         - -0.17055683798188598
         - 0.063309510149668236
         - -0.018381697479849919
         - -0.092107664279773183
         - 0.059109851646270681
         - -0.056670249524622685
         - -0.025899709702647593
         - 0.084759104625249229
         - -0.11973350502218175
         - -0.0093464573696011889
         - -0.0052004509635233511
         - -0.053783183049874478
         - -0.05301113187900923
         - 0.12577398951018937
         - -0.0055693338847148076
         - 0.029317481705913251
         - 0.009344582573943383
         - 0.05338241118591279
         - -0.0096279023838196729
         - -0.0047836882151749589
         - -0.01812410586321549
         - 0.08717456629671079
         - -0.037840157307979974
         - -0.040194296986623343
         - -0.31775376780180231
         - 0.040753933868693311
         - 0.18377830934094225
         - 0.041692336960845379
         - -0.0047579135923364871
         - -0.1693461630485209
         - -0.042020411283461227
         - -0.029651229557080022
         - -0.0021154215778777952
         - -0.1480305623597909
         - 0.1086052241600729
         - -0.22458548983600493
         - -0.0041298303878267916
         - 0.019170318844216012
         - -0.19261728900373656
         - 0.23324373749506896
         - -0.079428611374769698
         - -0.015369216048608313
         - 0.024542798277917062
         - -0.047192563823495369
         - -0.26976035065595716
         - 0.31174779264298785
         - -0.098030401431440692
         - 0.23560756316850515
         - 0.21986512057327856
         - 0.29706610190310467
         - 0.035645539274339152
         - -0.10728250255509182
         - 0.090245565390703664
         - -0.18362492649964399
         - 0.066737397081859925
         - -0.018022216911403613
         - 0.23887501715583984
         - -0.15496060067046796
         - 0.36979548868625828
         - -0.1781033783953973
         - 0.063358619974222444
         - -0.20532400874698162
         - -0.21632364856336933
         - 0.048982095474370921
         - 0.28059444891808061
         - 0.20809196669256758
         - -0.054729147364560291
         - 0.069431377863243798
         - 0.090557404084381135
         - 0.1742061404616822
         - 0.036394866329618782
         - 0.28660614858469213
         - -0.029976007915289482
         - -0.11767869144651567
         - -0.27184952945815138
         - 0.39307736130373333
         - 0.34025795711873941
         - 0.13806720403030173
         - 0.10804602010070297
         - -0.012219766034337765
         - -0.17522772779747012
         - 0.014050165748244739
         - 0.35886023115091109
         - 0.0083863006130868532
         - -0.21459907473652146
         - 0.031088645834957691
         - -0.11928203329433447
         - -0.28438780262247221
         - -0.079271049520188888
         - 0.0098812736965373377
         - -0.16416665341435535
         - 0.094669261499389618
         - -0.46757424425611693
         - 0.022821187178420469
         - 0.040064936311826664
         - 0.20691619675151757
         - 0.015419668975345966
         - -0.037885537057661817
         - 0.40256094290577743
         - -0.047338704465776017
         - -0.113670685869806
         - 0.054213134581467676
         - 0.37664424926545426
         - -0.045353617357745721
         - 0.042218183374767036
         - 0.07331778346108575
         - 0.16385312649458658
         - 0.042818768839813871
         - 0.044151599667332585
         - -0.040716246447601086
         - 0.30187204977875626
         - 0.18515986040141144
         - 0.037916291519000535
         - 0.064866531976550054
         - -0.021464661528725851
         - -0.29849063316369051
         - -0.051773647180728986
         - -0.34066344974414398
         - -0.39824538398299664
         - -0.2061671548371205
         - -0.027154772463277018
         - -0.12016646603129924
         - -0.35473310271767688
         - -0.041957456863847581
         - 0.1116839519175729
         - -0.35805041999493326
         - 0.36510227344169077
         - 0.199435269305757
         - -0.24153517608836877
         - -0.017704684374498306
         - 0.043301462284945386
         - 0.41498579684177994
         - -0.15231071595093632
         - 0.11259368521093982
         - -0.061211223112537932
         - 0.074796890332555155
         - -0.096960011019560768
         - 0.19527814691130385
         - 0.17640715521637571
         - 0.12895596334297099
         - 0.21173466152887291
         - -0.24879502550923119
         - 0.1101769415239548
         - -0.20569076859881527
         - -0.03141099078464113
         - 0.011702595860882705
         - 0.13974291203261363
         - -0.43634521403998905
         - 0.061523425437589575
         - -0.22405460574751496
         - -0.063263554212813031
         - -0.12397195418851284
         - -0.00070645274176100255
         - 0.079790919566344418
         - -0.11722404627405208
         - 0.0069930468425770552
         - -0.07414261653086035
         - 0.042128984281013949
         - -0.14061515559800977
         - 0.14338936702220506
         - -0.18654883161042446
         - 0.054816498209924944
         - -0.018310915455687939
         - 0.06633835917908866
         - 0.17676604266445151
         - -0.0080571107298109072
         - -0.085924529364404895
         - -0.13113666453637299
         - -0.012657446075075121
         - -0.030059001015351403
         - -0.030132435403148587
         - -0.15156366229559992
         - -0.046683014663973656
         - -0.18447124838883724
         - -0.0050769348751384573
         - 0.037699021596369363
         - 0.18440506550350505
         - -0.15662754101318169
         - 0.10395525513702265
         - -0.17561821279098205
         - 0.0068937830479524681
         - 0.038293253399716329
         - 0.073414976780564925
         - 0.01623652824582392
         - -0.31807466920071248
         - 0.055957053875933895
         - 0.04805833327809083
         - 0.082029498410614313
         - -0.0060609884008107316
         - 0.22490357234737532
         - -0.067251888054829942
         - -0.0083532445243989211
         - 0.10929982479343806
         - -0.05861134834083058
         - 0.19355697204963757
         - -0.010678613348787678
         - 0.079245994962082081
         - -0.13172773299401849
         - -0.0097106535195317818
         - -0.034877788641437875
         - 0.0095983880389996536
         - 0.024098183275215068
         - 0.030707223679510183
         - -0.011504301593264663
         - -0.04526563456779574
         - 0.02945548949851317
         - -0.023723513746060354
         - -0.051720058784749383
         - -0.11470334384444783
         - -0.14819856293594266
         - -0.038571936951493635
         - 0.10577791418075541
         - -0.14584413152677195
         - -0.13155623933402019
         - -0.035335763067035883
         - -0.0078175683157491217
         - -0.018077716665925423
         - -0.13237023834337419
         - -0.079660688343262412
         - 0.090064133184859813
         - 0.058200424142261134
         - 0.20565631785918634
         - 0.069841794063236179
         - 0.063461305558902018
         - 0.32199407163287175
         - 0.062445049766396969
         - -0.033762696887733493
         - 0.011330550546410977
         - 0.10012690523325128
         - -0.13149791762267188
         - -0.015016698818785491
         - 0.015566602898915559
         - 0.0041143045230958228
         - -0.16581628351777897
         - 0.13582722110140563
         - -0.058042736221476779
         - 0.050174049119898007
         - 0.0090440857300260417
         - 0.1444107561391931
         - 0.029692434453993881
         - -0.10360434953998011
         - -0.10323521693921174
         - -0.12558233119280668
         - 0.064453433958884893
         - -0.021248524444675457
         - 0.11076078326132387
         - -0.022762893724620835
         - -0.027672880031313293
         - -0.12820254653443916
         - -0.039245719564869649
         - -0.066247948274731017
         - 0.058765389289023751
         - 0.021118721386292783
         - 0.14314269316575334
         - -0.11799027254878421
         - -0.10003991276398357
         - 0.1095263521154269
         - -0.068461691883795112
         - -0.032678255163413911
         - 0.16364463294757503
         - 0.017107978654550209
         - -0.15507228228414621
         - 0.079943517779899137
         - -0.007720638656621156
         - 0.141415386894641
         - -0.04565563291977507
         - -0.013189850894400203
         - 0.095178163208234842
         - 0.048965545688860516
         - 0.021577605769907537
         - -0.084155381887371372
         - 0.042214353688970009
         - 0.15755174433026603
         - 0.15356150040496569
         - -0.037335784607902316
         - 0.041789731955986356
         - 0.14725641081097532
         - -0.025648542912162332
         - 0.013366611537724156
         - 0.13437235525020674
         - 0.19278066228432317
         - 0.1717651058461398
         - 0.12460592516481239
         - 0.22074984411663623
         - 0.052406244097491804
         - 0.077603023413355399
         - 0.13611727928384126
         - 0.13989128040135287
         - -0.061795703259388081
         - 0.14918859999960937
         - -0.15505168387067364
         - -0.093305398067915296
         - -0.11758082399613146
         - -0.01837501744320769
         - -0.057348916006110986
         - 0.1004285862081087
         - -0.38800769323654838
         - 0.055381477012920954
         - 0.18126902440852594
         - 0.15614424267748636
         - 0.03325903490587255
         - -0.12210688215455158
         - 0.26177030948677932
         - -0.00028235912864170394
         - 0.19845869927711374
         - 0.11246989203635735
         - 0.034943892943441163
         - 0.18522082894073053
         - 0.071966773812608353
         - -0.062069083672809798
         - 0.074004650569393829
         - 0.2374056526313332
         - 0.12928065377258374
         - -0.14746997362737174
         - 0.094940130209247117
         - 0.042813330427042329
         - -0.023503191836072673
         - 0.093440241947864544
         - -0.091598380516670158
         - -0.058556903859028508
         - -0.11282171412347682
         - -0.043698724290665104
         - -0.074474137070897353
         - -0.065803937740174179
         - -0.02330277187988869
         - -0.027697651583207177
         - -0.1472711423717056
         - 0.0024365132921932635
         - 0.1747506825350878
         - -0.07035639736037938
         - 0.28323530448763873
         - 0.11197684691792911
         - -0.25445383836226698
         - 0.1351071430957583
         - 0.09291132879337427
         - 0.10764865103960956
         - -0.13461886705662016
         - -0.0040369011151338797
         - -0.0297308103251567
         - 0.12353268971311945
         - -0.051840155089794199
         - 0.20386557838192979
         - 0.021980531448508485
         - 0.053507204051277603
         - 0.25993263223113622
         - -0.13651755098240326
         - 0.12273774476714414
         - -0.077643793617472354
         - -0.042165621225639868
         - -0.078192318040039399
         - 0.37499270273665858
         - -0.16958785802123866
         - -0.082189013902485467
         - 0.2321624098580761
         - -0.12029099923195916
         - 0.25390887354210667
         - -0.023486027536358211
         - -0.04663021802797384
         - 0.15232915541477748
         - 0.054834181911484522
         - -0.054468795334548965
         - 0.088096007964274178
         - 0.088050891342280696
         - -0.22277583051659239
         - 0.24128185281981732
         - 0.1025729124434055
         - 0.11825341591761736
         - -0.23283671053861218
         - -0.10596285483323915
         - 0.073940756000432512
         - 0.11897641864163211
         - 0.042023396950948942
         - -0.1013537961583082
         - 0.077935576294003064
         - 0.10362861992678232
         - 0.27526139697685065
         - -0.038483692510595899
         - 0.20234245101550993
         - 0.028940251482830325
         - 0.074088518110110149
         - -0.17866191429672953
         - 0.15726096777745591
         - 0.18330270596013157
         - 0.21613301360911877
         - 0.11969792967078813
         - 0.023015642328606121
         - 0.04328981867897945
         - 0.058222474912325191
         - 0.33392444310075109
         - 0.08155149482275853
         - 0.055408902557779707
         - 0.17554225767694709
         - -0.10963605983751831
         - -0.16752453554381685
         - 0.039727589246982831
         - -0.040179284931118789
         - -0.16916392207065817
         - 0.085144957420259876
         - -0.12871172860724817
         - 0.05006437649319298
         - 0.14692363237409251
         - 0.34514466484280348
         - 0.031201190572099302
         - -0.11939585602853085
         - 0.10354177457379765
         - 0.016493754753260006
         - 0.10727157674995451
         - 0.085655858495423454
         - 0.26283711553553235
         - 0.051247275433916523
         - 0.048668167658471206
         - -0.058373203821511524
         - -0.011883101964394224
         - -0.074833490575808945
         - 0.072400255546097442
         - -0.014693226701318677
         - 0.1332985699024293
         - 0.086317798549331762
         - -0.045156923387365558
         - 0.077853674383929497
         - -0.079297530584180875
         - -0.015662176750582967
         - -0.13877283672034227
         - -0.063281869973956087
         - 0.02976784011664731
         - -0.17286066748287546
         - -0.053372126567635528
         - 0.083131222221043063
         - -0.26354671025283122
         - -0.069491118901024301
         - 0.10509774897712691
         - 0.08841149154596771
         - 0.11338392847374938
         - 0.11911505585106903
         - -0.19561876767885625
         - 0.067879028398305341
         - 0.052980892624978751
         - 0.29071596604513095
         - -0.11084931816470063
         - -0.061803347511472775
         - -0.065587366848293555
         - 0.12392002789495687
         - -0.13783508752865423
         - 0.14423854859329166
         - -0.018421647439522987
         - 0.022364900881819142
         - 0.1648991820553006
         - -0.20461373551718001
         - 0.085099423879957461
         - -0.038949701362473402
         - -0.054896207650887763
         - -0.038513960969788444
         - 0.069801302236775206
         - -0.26359977862692818
         - -0.33968204450308648
         - 0.033311298723796776
         - 0.0066267713748973276
         - 0.3925841803647751
         - -0.036264426729514437
         - -0.34057448070560603
         - 0.26653922097761074
         - -0.022592195875337447
         - 0.006186564946122834
         - 0.10706889808264208
         - -0.13293846911594387
         - -0.4249620856623228
         - -0.02468853043559132
         - -0.041955983650002415
         - 0.23648174293685423
         - -0.25770923601240731
         - -0.14370382268473519
         - 0.15495337831605541
         - -0.05546752001950761
         - 0.14791505057040891
         - -0.14991177231114242
         - 0.2134671489421498
         - 0.20533577046818563
         - 0.40607585760745113
         - -0.081396950433767351
         - 0.027693971490627134
         - 0.094527838065493558
         - -0.12429579151192927
         - -0.13336685182093616
         - 0.181604867419247
         - -0.016842656287281037
         - 0.41431200174577826
         - 0.21540637844100471
         - 0.24003947282680518
         - -0.048752522932918187
         - 0.12166269166005458
         - 0.31560193645448953
         - 0.1743995000480951
         - -0.11486992074471902
         - 0.19122346790767242
         - -0.23219644508993317
         - -0.20202225632796528
         - 0.071287646329393911
         - 0.07266431282463634
         - -0.26119658261655593
         - 0.19989728831757764
         - -0.31367090766935002
         - 0.0019068807898200348
         - 0.17940017601604466
         - 0.3732157692025313
         - 0.008612376077126541
         - -0.19331641904780153
         - 0.16711740406700043
         - -0.085070307861753541
         - 0.24424792522329633
         - 0.17400598721865645
         - 0.051291979368495409
         - 0.10838046073092482
         - 0.094397405080340127
         - 0.0089133151277099414
         - 0.14247843864925094
         - 0.43832252934002264
         - 0.19502815771800083
         - -0.38971860304991196
         - 0.32231601772513174
         - 0.19279941434301287
         - 0.058240224449588117
         - 0.17222594436829886
         - -0.20971131955156694
         - 0.064416941044959208
         - -0.24314624596960893
         - 0.025424239332762704
         - 0.025373463456974762
         - -0.097234517284644814
         - -0.13429472180847868
         - -0.09482196064873924
         - -0.19742342520262496
         - -0.18951040503626301
         - 0.24372519460463618
         - 0.019287833590162919
         - -0.072131311124222247
         - 0.2200836389501305
         - -0.36567506155661339
         - 0.079152180379194165
         - 0.11774699745446218
         - 0.12245018992772493
         - -0.27532339025732572
         - 0.025061896531148195
         - -0.13584324651160204
         - 0.20703196982157457
         - -0.31329742372259645
         - 0.32360678485754962
         - -0.0080679540890199603
         - 0.1429343869981026
         - 0.41025053558655328
         - -0.3317106846737764
         - 0.2534114254204573
         - -0.12642027352011054
         - -0.079962408607246696
         - -0.036147809456516314
         - 0.39857579455406666
         - -0.12987999814688209
         - -0.060615371701262757
         - 0.020495205366550712
         - 0.33433100074317801
         - -0.01129505898757565
         - 0.081610848621663248
         - -0.014900204951485958
         - 0.0012523617912300917
         - -0.047961130485347225
         - 0.1135474569803204
         - -0.063687305783116349
         - 0.15633255753472106
         - -0.22963341129138284
         - 0.0042274963671951023
         - -0.16902873418493133
         - -0.10638393110849191
         - 0.010731757188173778
         - -0.19175358428636477
         - -0.079358958464861531
         - 0.054453450867934891
         - 0.15341691928464285
         - 0.048375344183426532
         - 0.051468895602298288
         - -0.09859832654549508
         - -0.034037914270983849
         - 0.075841061214493882
         - 0.022339759792921549
         - -0.07982090850699293
         - -0.13864787988760413
         - -0.15919067167334419
         - 0.3468940722467575
         - -0.051377410018746981
         - 0.054843028310432744
         - -0.015691368164827527
         - -0.085558401911109888
         - -0.12281355770599681
         - -0.0266179058629438
         - 0.22519883334001595
         - -0.057816034585352845
         - -0.24534286897373447
         - -0.078187671809909126
         - 0.052766753805165073
         - 0.036698816316450944
         - -0.09673428907998198
         - 0.049001924349233561
         - -0.045806711945317588
         - 0.063325549263139311
         - -0.065655495914672443
         - -0.025283310125987918
         - -0.063463888128191995
         - 0.020135298725629157
         - -0.034221389973284756
         - 0.090206771205575784
         - -0.020212113784762321
         - -0.069491310872763848
         - -0.036333824121091422
         - -0.071715520804340724
         - 0.072372840746943293
         - -0.054731436283693174
         - -0.035517166923220246
         - 0.092745996666622185
         - 0.13587790768457444
         - -0.061679207704547365
         - -0.053727159552965587
         - 0.046253667603747835
         - 0.20123521534571601
         - 0.21855235364307676
         - 0.059844354763596917
         - -0.071849143156370518
         - 0.066475330798808602
         - -0.18737826948311717
         - 0.14560342345012775
         - -0.093289693634963033
         - -0.31209116426384531
         - -0.01989294534021456
         - -0.067044187429944849
         - -0.22344039495284582
         - -0.29334433412805011
         - -0.043729043570899205
         - -0.092586164650041658
         - -0.30205387151264312
         - 0.076908615483939111
         - 0.25932458674382736
         - -0.091078871532905725
         - -0.055246609028718419
         - -0.053380719387978511
         - 0.010498181582520374
         - -0.27994109228036007
