%YAML:1.0
---
opencv_ml_ann_mlp:
   format: 3
   layer_sizes: [ 300, 202, 2 ]
   activation_function: SIGMOID_SYM
   f_param1: 2.
   f_param2: 1.
   min_val: -0.94999999999999996
   max_val: 0.94999999999999996
   min_val1: -0.97999999999999998
   max_val1: 0.97999999999999998
   training_params:
      train_method: BACKPROP
      dw_scale: 0.050000000000000003
      moment_scale: 0.050000000000000003
      term_criteria:
         epsilon: 0.001
         iterations: 5000
   input_scale:
      - 129.79994735452723
      - -0.74922217476752695
      - 185.29657208536671
      - -0.57318932421781754
      - 208.98516623957511
      - -0.79177369945099252
      - 184.52368362381114
      - -0.61938323543079987
      - 184.26958730880287
      - -0.50192473015768413
      - 159.12298925186326
      - -0.64804844532300188
      - 212.08257707786564
      - -0.58335012294696686
      - 211.79775912078102
      - -0.53786473935560097
      - 196.84910789164766
      - -0.57692429370534837
      - 189.37982608322528
      - -0.69154795056851237
      - 265.2792447502157
      - -0.47959559537241847
      - 270.93796756947671
      - -0.57305517770927972
      - 174.95309207005459
      - -0.40061844337710883
      - 143.88064878016272
      - -0.41707382549928451
      - 175.18040371237345
      - -0.64769028395894712
      - 183.24952569066636
      - -0.53395982622176941
      - 209.56610986381597
      - -0.68252426148448397
      - 174.22033327493827
      - -0.59524140931030156
      - 204.37919196482375
      - -0.77947717198961597
      - 188.47420180428657
      - -0.609762474357044
      - 149.60808176197961
      - -0.58601752381615624
      - 233.83116926062149
      - -0.58788996538335392
      - 109.70171077284755
      - -0.53479327016382594
      - 235.63824249779026
      - -0.5511873061446424
      - 59.828890637214478
      - -0.31312873396922525
      - 237.49256638927022
      - -0.68724579526511653
      - 191.5734316748534
      - -0.62592497746033271
      - 190.58051345979285
      - -0.76267421426478088
      - 232.6867595489546
      - -0.57441346707625562
      - 215.66854338289909
      - -0.56898084313857589
      - 162.52373244936345
      - -0.5022350825971541
      - 134.31076497161237
      - -0.68788904571706466
      - 130.42890262141177
      - -0.52327123509545659
      - 197.40223162650639
      - -0.6724310687922288
      - 147.44881861752557
      - -0.73830563087728929
      - 169.66769668730316
      - -0.63798093144887102
      - 225.77830722023288
      - -0.57239904109033246
      - 219.03641647822741
      - -0.47538661385547115
      - 126.08936745135678
      - -0.54154943629852459
      - 233.05137809098136
      - -0.57759720568116291
      - 106.07765058742872
      - -0.43729719529912292
      - 197.38428751336818
      - -0.63504763546016363
      - 183.89968480958797
      - -0.68919553184941229
      - 218.89537022006641
      - -0.56073211909801479
      - 121.87007077445136
      - -0.5539988198043222
      - 165.0827309104472
      - -0.51844737342756286
      - 165.45253090516596
      - -0.70824407510117038
      - 164.38054855111926
      - -0.53451079983225736
      - 186.04050795600747
      - -0.63585089560340835
      - 98.524899123612698
      - -0.32454921180995799
      - 227.00446444640411
      - -0.58366290237378327
      - 281.44698021605876
      - -0.54459306159205523
      - 235.82450661413876
      - -0.55875451681701982
      - 206.96699601081653
      - -0.6129346508243585
      - 190.45892028576444
      - -0.64107425688129904
      - 219.65476910690441
      - -0.59726642797203633
      - 211.05442374996886
      - -0.66480454900422348
      - 178.43676457841491
      - -0.56220436208692048
      - 220.15291831511496
      - -0.53615884213747345
      - 197.20433395333527
      - -0.57359794579390277
      - 186.88638440977741
      - -0.61056519778143015
      - 135.63395216971728
      - -0.61040808058247598
      - 187.0233732630652
      - -0.59373200757928468
      - 237.33887076995228
      - -0.61538941256766089
      - 209.53513426502869
      - -0.60737579127641361
      - 183.94461856370606
      - -0.59908164681998621
      - 250.93263363279007
      - -0.47873719788730895
      - 176.21137856878633
      - -0.7070570904273723
      - 190.97760385895086
      - -0.60838514985927217
      - 216.7379059467454
      - -0.50121438122296369
      - 117.28403392143571
      - -0.64978570383804579
      - 156.33382945752356
      - -0.676158687076021
      - 127.40883869582923
      - -0.53436482024331278
      - 124.44374789957426
      - -0.34758885430352454
      - 233.01096324752945
      - -0.57996166755310286
      - 186.21535756172193
      - -0.61209733299236579
      - 240.30511994415792
      - -0.64241470009503832
      - 91.779270052534812
      - -0.51907797663855393
      - 204.19780155112051
      - -0.58791474334510163
      - 230.67166202368716
      - -0.61246892930384256
      - 185.9340039870535
      - -0.56200963297325612
      - 194.64342716698158
      - -0.58592669667714159
      - 175.38689856173903
      - -0.5694453558086634
      - 180.95493036614153
      - -0.64599195388118358
      - 188.0092219087862
      - -0.57853789839330783
      - 270.9266717902787
      - -0.63580014268622154
      - 243.58129134273017
      - -0.61287588989972774
      - 274.14354744819644
      - -0.64983420892779886
      - 156.09941510601558
      - -0.62702764151180845
      - 238.83056238260755
      - -0.60901809071447777
      - 135.52071782529268
      - -0.55282136625041178
      - 165.73934957728255
      - -0.75272641976721144
      - 222.34474432314596
      - -0.6716047078321703
      - 162.17835482527656
      - -0.61742216403387529
      - 165.02587511450744
      - -0.66994851506534581
      - 208.63248164148689
      - -0.58145744528644938
      - 260.31473980163304
      - -0.59629536048108434
      - 211.5390500445684
      - -0.60073886823379397
      - 134.37417756381382
      - -0.62760162878597381
      - 243.69038564396223
      - -0.58289096034953447
      - 169.50290698021257
      - -0.59397784439674994
      - 189.01236508485522
      - -0.63776544673296565
      - 209.73474277635438
      - -0.53259650362169175
      - 120.9270169752006
      - -0.61932349240270912
      - 286.3890921211746
      - -0.51925703926230882
      - 196.34937336738861
      - -0.64478914030717271
      - 198.46693001156137
      - -0.57301662683581378
      - 174.6102249561439
      - -0.62349521856111034
      - 197.58459677523149
      - -0.66618402272546673
      - 205.23560285216482
      - -0.62318671676571491
      - 118.56428943439039
      - -0.58517901600947286
      - 114.42681607546101
      - -0.54134599099306524
      - 162.57773218990184
      - -0.45012777722678909
      - 196.27931425362331
      - -0.60197188919414324
      - 243.50233065219734
      - -0.63431976534844903
      - 169.050904892858
      - -0.6600608661143228
      - 242.93343377625877
      - -0.51484763937795508
      - 135.31620577391919
      - -0.5934167094623175
      - 187.39639772913242
      - -0.63242217816594914
      - 182.89168744927491
      - -0.6305726774086946
      - 131.90063057470931
      - -0.76828611790906576
      - 80.188808604638965
      - -0.73219087149939144
      - 217.88828266441024
      - -0.5945375562536559
      - 196.41896826825459
      - -0.73730730820458334
      - 210.6944880079399
      - -0.64937368268756801
      - 195.12777379377499
      - -0.55730301386298808
      - 232.65898832436662
      - -0.69800770655870881
      - 225.16472494464068
      - -0.5938537533092636
      - 192.58302230573622
      - -0.60884672998236944
      - 196.87457108049185
      - -0.75558681821323448
      - 190.74470028819502
      - -0.53524266353664407
      - 111.61957581931364
      - -0.58467684570344491
      - 192.13887743952304
      - -0.63643262317922167
      - 231.21730319725305
      - -0.41224909225583573
      - 204.92483559307962
      - -0.73520218423628636
      - 206.82423191502545
      - -0.66714848792157011
      - 187.22714569760569
      - -0.57761687975521625
      - 209.36943853952494
      - -0.68557548147916569
      - 190.6732601029122
      - -0.67240621229924524
      - 210.10751038818196
      - -0.62833690343963988
      - 170.62399031998194
      - -0.65481225310212288
      - 215.81089622114516
      - -0.73122943715187927
      - 107.91628526360221
      - -0.57042399992356796
      - 246.29598787108898
      - -0.57887104280099877
      - 218.87697512685824
      - -0.54262920960485272
      - 204.08044360784683
      - -0.60543357452632118
      - 215.81815456822204
      - -0.63774864388388086
      - 226.99853075811862
      - -0.691625590161421
      - 166.76200456140373
      - -0.50011714486871972
      - 175.17804151174769
      - -0.71636564029699179
      - 139.91030514636606
      - -0.64297867799889019
      - 151.11016012030666
      - -0.5632797555145268
      - 135.27030383203305
      - -0.59286619186498557
      - 166.93100868244824
      - -0.66043916278094739
      - 194.98447454548131
      - -0.65994807745069917
      - 186.54236034279594
      - -0.64789229538757842
      - 267.95703395607524
      - -0.55672441945253315
      - 137.59150225544414
      - -0.52321022426495178
      - 195.20132779698346
      - -0.62897251422890943
      - 182.69286425049526
      - -0.58206309964633096
      - 205.34562207928499
      - -0.62088308576794438
      - 219.49721148783055
      - -0.62138961228389045
      - 158.99265695062479
      - -0.71878665787012064
      - 265.87824618832923
      - -0.55713914666268238
      - 233.23486705300854
      - -0.66441043641813868
      - 163.5373858608188
      - -0.58587137221709051
      - 185.95403478873581
      - -0.62606978700344118
      - 157.31047551807245
      - -0.62048276406203051
      - 218.10523309613976
      - -0.5768864928588332
      - 155.95960299157716
      - -0.64633068935067373
      - 227.36338121946076
      - -0.611275603116614
      - 166.51864794812644
      - -0.55674917554201442
      - 212.04615972461582
      - -0.58278134954455219
      - 220.40239852586566
      - -0.49914964995706002
      - 210.03663603791298
      - -0.68884208722168416
      - 210.51876376765986
      - -0.60331607220791739
      - 217.16348079732023
      - -0.6446909332853904
      - 157.68205268909477
      - -0.40597516716612547
      - 177.81495482266001
      - -0.59780771409792555
      - 185.9214549766933
      - -0.5958682940056812
      - 182.22891987230221
      - -0.70120492670245216
      - 255.09209999210535
      - -0.5444965053506392
      - 135.23218795162884
      - -0.61509017162146884
      - 199.79360669936983
      - -0.6905158933463752
      - 140.05718607211784
      - -0.5361268983613785
      - 171.01112871535787
      - -0.72572658289574021
      - 192.27424025854683
      - -0.66567704539293648
      - 178.51507795158761
      - -0.59187507646416204
      - 190.35139498073968
      - -0.65608450367663063
      - 276.14587912402067
      - -0.54620489706094855
      - 205.75665919972798
      - -0.61966257896263333
      - 228.15070549596544
      - -0.60291081060257801
      - 183.21291619444563
      - -0.71762589456457104
      - 179.48065751916064
      - -0.6956859636314433
      - 273.86880562883664
      - -0.48761864739788457
      - 191.23743012854794
      - -0.55095616787180146
      - 187.70005761423624
      - -0.60543546619448474
      - 208.58022383735354
      - -0.62348678089320653
      - 241.55555632938314
      - -0.65337217714161389
      - 193.00002646022702
      - -0.48351998179716865
      - 186.53510766480915
      - -0.48915584731404488
      - 283.00085333450625
      - -0.54976928442099793
      - 216.62765466186372
      - -0.60441093213979169
      - 109.42438169912087
      - -0.60141951576536401
      - 165.62148004222195
      - -0.72513707843771891
      - 196.86627628702061
      - -0.71000632846613121
      - 213.94839254270667
      - -0.59487129478338308
      - 124.85416755502214
      - -0.56647014220541769
      - 194.92239975269388
      - -0.70341825805757985
      - 182.37012442955447
      - -0.58075372582469853
      - 250.99486685201262
      - -0.6608399907769551
      - 161.45080473772805
      - -0.71136306716923847
      - 215.95060372170599
      - -0.59344813143366315
      - 297.18825343839268
      - -0.57444730972922053
      - 192.90467140039223
      - -0.59952087952565858
      - 169.13446904489484
      - -0.53550709438763522
      - 227.85189744778233
      - -0.63571813911251218
      - 182.14920260375513
      - -0.61096961179777631
      - 195.90771418637038
      - -0.75874566880069338
      - 235.43157497365192
      - -0.68301608454269369
      - 115.08811013221903
      - -0.66201470889068725
      - 191.439278049129
      - -0.66780734676011488
      - 238.14210245972947
      - -0.60851131720554541
      - 171.31027511069794
      - -0.60045977653348326
      - 164.08317761288262
      - -0.55246037353813038
      - 226.91605636258075
      - -0.51111948070354785
      - 156.14811848890935
      - -0.59076578980811012
      - 151.34250008309283
      - -0.49724981521698386
      - 131.91916355657656
      - -0.63416449959514609
      - 188.76787981186098
      - -0.60122770515852431
      - 147.35391467930123
      - -0.67069102044663553
      - 222.9376969375455
      - -0.64745631875740117
      - 182.42873414653252
      - -0.62483928972671576
      - 222.74593127857645
      - -0.58614222971243379
      - 186.49500332380526
      - -0.79750071473171757
      - 217.2250782974634
      - -0.58082279194500908
      - 236.06729078876654
      - -0.66726471350391947
      - 124.27056379277781
      - -0.61274111894546979
      - 225.33545682823106
      - -0.60836760953350122
      - 104.60509170362589
      - -0.71528695135155429
      - 158.61312951112814
      - -0.52461502485401079
      - 235.05680640571046
      - -0.54663113817510656
      - 194.00493055870479
      - -0.72372490533640665
      - 257.13728951821776
      - -0.63159231061756804
      - 193.48442802482612
      - -0.66411841041524844
      - 197.57161362864082
      - -0.68987952808675246
      - 234.60373285400311
      - -0.58572517351429443
      - 158.4945925947321
      - -0.48569135912134898
      - 80.937391645051164
      - -0.45542922734615759
      - 236.41347316729272
      - -0.59871293994874708
      - 183.28484314105276
      - -0.56778573180516745
      - 150.7629637053048
      - -0.58466823385938926
      - 235.95207217156263
      - -0.69496717664214525
      - 184.77383124873958
      - -0.60816800239797819
      - 181.14279647345955
      - -0.63560439967340543
      - 155.36570809343252
      - -0.53294019680378579
      - 183.31575531487638
      - -0.67982687054615842
      - 206.95602783547596
      - -0.68421342069135793
      - 162.06168941022608
      - -0.66394419519299908
      - 225.13578816507135
      - -0.59902299991779906
      - 193.34022025132802
      - -0.6836698971179197
      - 257.27537874874611
      - -0.66073231568458002
      - 194.79093891567817
      - -0.62198533029002245
      - 184.13101300413911
      - -0.58109877105925445
      - 231.8736067590583
      - -0.66504079166007612
      - 167.1648405162789
      - -0.64734954657134669
      - 155.87716895630757
      - -0.64399922971440793
      - 123.68009123026158
      - -0.46121211856372502
      - 216.44066998591964
      - -0.64762665267815411
      - 195.45815486969383
      - -0.60086143679457948
      - 173.38010528407605
      - -0.64238995617244943
      - 179.42965017815399
      - -0.64272625738402889
      - 188.74153662941069
      - -0.62270561272139868
      - 249.36420909776771
      - -0.60499987380532061
      - 157.09432102652548
      - -0.60803671122716241
      - 168.77558992003222
      - -0.73980734570841666
      - 154.60018835506344
      - -0.68724683856585822
      - 281.70790592662348
      - -0.55843223956232435
      - 224.27953126339798
      - -0.54784923754480386
      - 155.75144735023085
      - -0.61144002203419601
      - 148.41333693058377
      - -0.53741096966397472
      - 215.72781812376897
      - -0.5668394773446046
      - 226.5026111324988
      - -0.62721600478087169
      - 226.5900021128798
      - -0.59600842245089913
      - 225.96490535897576
      - -0.5527504324948731
      - 194.44810555283095
      - -0.67927619743586132
      - 143.40878546121922
      - -0.48984688403887561
      - 173.09291711399513
      - -0.46052124682112061
      - 243.85198337490436
      - -0.67920602239925509
      - 249.03575308093608
      - -0.65200495877450981
      - 149.8621414153844
      - -0.46367238511298658
      - 182.1971856060031
      - -0.60972522084514114
      - 220.4533524019069
      - -0.60484587401677892
      - 171.07813116176959
      - -0.65315045495386947
      - 194.12682372110541
      - -0.59717200468389164
      - 227.25080778276379
      - -0.60791337468772744
      - 167.94921756637589
      - -0.58017268361585383
      - 209.09055119626024
      - -0.70753841068710432
      - 190.24241591100431
      - -0.62851846222733021
      - 139.24024808838405
      - -0.52441760172353635
   output_scale:
      - 0.52631578947368418
      - 0.49999999999999994
      - 0.52631578947368418
      - 0.49999999999999994
   inv_output_scale:
      - 1.8999999999999999
      - -0.94999999999999996
      - 1.8999999999999999
      - -0.94999999999999996
   weights:
      -
         - 0.053667386312307379
         - -0.028902400812027426
         - 0.098480505925154324
         - 0.010903868801668269
         - -0.076414098738794109
         - 0.019952051534232185
         - 0.040616510774050076
         - -0.061745219419757788
         - -0.034938341754449591
         - -0.035024494778537363
         - 0.073627060318565321
         - 0.0083131700491299136
         - 0.020724128628919588
         - -0.059454240355042744
         - -0.064557461107767083
         - 0.037184813095781533
         - -0.028327077583142263
         - -0.025448646043644805
         - -0.066297172733512322
         - 0.061024374097269192
         - 0.06640886988300565
         - 0.028469129835006948
         - 0.0022602444105996782
         - 0.031341407583849082
         - 0.050043428211255188
         - -0.019297096445172857
         - -0.023043557128472381
         - 0.074518414287761223
         - -0.031573647003355132
         - -0.038425630060621503
         - -0.054403796707630153
         - 0.072410844914947911
         - 0.17633467482959017
         - 0.040418277445915821
         - -0.054111252323372404
         - 0.075187778124608404
         - 0.037813555195053042
         - -0.047885081705644955
         - 0.012418970688705866
         - -0.028346157767851821
         - -0.021457034320888295
         - 0.15179860816220875
         - 0.082357592512826192
         - -0.021359115599176345
         - 0.042822188634123737
         - 0.10291186881089165
         - -0.040938343296738809
         - -0.075341907210730474
         - -0.029950625884658522
         - -0.027122920162647078
         - 0.0077718214964135248
         - 0.083888739399329046
         - -0.16371911034271461
         - -0.084485116383888018
         - 0.26225887344406906
         - 0.018310970944624964
         - 0.048649215140645997
         - 0.04969831324480483
         - 0.059240272611151917
         - -0.0013267376291642243
         - -0.047739789605637961
         - 0.053616523080041271
         - -0.12401103804885988
         - 0.0581495118374998
         - 0.072117113798681923
         - 0.020234776033618704
         - 0.043600897089023052
         - -0.11807653028596127
         - 0.052363792042444075
         - -0.075096147194514323
         - -0.0032963588285163463
         - -0.079005541797216458
         - -0.039337033476697897
         - 0.14441699945610198
         - 0.038165766309787005
         - -0.0057736531231914875
         - 0.02278218242315461
         - -0.075363272089412986
         - 0.068317832760608238
         - -0.02450186981412009
         - -0.058797860765875135
         - 0.033640597614737755
         - 0.10832620921734118
         - -0.023621899302883657
         - -0.096906623971409075
         - -0.07568365620709705
         - 0.054467242930227228
         - -0.01634587213603448
         - 0.11639533112029703
         - 0.015314008860286612
         - -0.051798358014716675
         - -0.1813162617382349
         - 0.12919493442607147
         - 0.052130470005664994
         - 0.13239234033573208
         - 0.12790372479420828
         - 0.083647651388463071
         - 0.14066052354219954
         - -0.030670124511827969
         - 0.0022482396179379781
         - 0.025525156652551576
         - -0.059304152596514309
         - -0.10216311563037903
         - -0.042053805643645685
         - -0.15032639376758639
         - -0.0093685992858411962
         - 0.045402264606119271
         - 0.034709383283764508
         - -0.051847101496233367
         - 0.027450726252271351
         - 0.092211080951724145
         - 0.11730145912937311
         - 0.029189958183353966
         - 0.022257870828436759
         - 0.1124958179012344
         - -0.063568152520417587
         - 0.037122550843216522
         - 0.078211783109347191
         - -0.082169442936646797
         - 0.03690545723519445
         - -0.018871985705797737
         - -0.037065624446029476
         - 0.12142445812194422
         - -0.041465189418213283
         - 0.033147119587947728
         - 0.0019551980948215855
         - 0.090256543192375194
         - -0.048026284272179358
         - -0.022240067421531777
         - 0.06701047270516057
         - -0.07494658979246982
         - -0.012615193988579531
         - -0.062755562114773109
         - -0.054140360789075262
         - -0.014266948566582354
         - -0.036716999330520993
         - 0.039645740084948415
         - 0.19927687292566673
         - 0.031889624080185308
         - -0.12830705294704589
         - 0.044056004978591343
         - -0.086079547726219674
         - 0.048112607116852966
         - 0.057341454233105348
         - -0.096187183132926499
         - -0.21482681660778086
         - 0.04202863323928635
         - 0.084774214644241896
         - -0.13257128262644841
         - 0.051023414767042481
         - -0.051824563241211069
         - 0.069639329959610322
         - -0.014471103633709678
         - -0.046301675818764841
         - 0.031612157645011948
         - 0.047508122928784417
         - -0.056299019341083403
         - 0.076514749894788472
         - -0.0061356131941100638
         - -0.049021603925223964
         - 0.050681439952379843
         - 0.092904822543502713
         - 0.050051448827683732
         - 0.033958372223743927
         - -0.10767404082895282
         - 0.016689420213166741
         - -0.0079307218547060004
         - -0.050504775231374796
         - -0.031803372690073967
         - -0.024332929527806992
         - 0.080864120348526206
         - 0.10211978601928437
         - 0.00041606019879623636
         - -0.038661193855398096
         - 0.029809953057348553
         - -0.064282100537413941
         - 0.041061267230826641
         - 0.10238240162426446
         - -0.19005007431137869
         - 0.077835266730632902
         - -0.075774930923589362
         - 0.069016684324229638
         - 0.00290418058965426
         - -0.0807784671027722
         - -0.08742763579312092
         - 0.10955244226690207
         - 0.023242679872469484
         - 0.094158043359578697
         - -0.037107563901346306
         - -0.047204057687714941
         - -0.0078734966421811596
         - -0.09139360080186465
         - -0.016014169988564281
         - -0.022193599755401548
         - -0.037099984736437115
         - 0.031711231236644113
         - -0.056962828736008983
         - -0.16122093164162085
         - 0.028106183056871365
         - -0.054479214529635056
         - -0.08293870839339279
         - 0.14181863633688063
         - -0.023525868522218371
         - 0.043254314120813063
         - -0.059239302066464244
         - 0.027050936634872357
         - 0.0021132732629838913
         - -0.0067782568594520944
         - -0.087058854036108885
         - -0.0052097826089326869
         - 0.052685281886953261
         - 0.0073669083481922772
         - -0.035947954361783836
         - -0.035677076695030042
         - -0.063441507375953582
         - 0.059813437138477588
         - 0.016562194883804948
         - -0.010285199208396018
         - -0.0041363366032208561
         - 0.03887505528645277
         - 0.19856970016657297
         - -0.097438544302969748
         - -0.015586617292361375
         - -0.0071770928410113096
         - -0.037412661553693383
         - -0.018015077540450109
         - -0.009939450623665769
         - 0.030676647875420064
         - 0.031421469525710191
         - -0.20069269321605279
         - 0.0061403851371691319
         - -0.0064194520438274442
         - 0.062140324687687092
         - -0.028646241518858653
         - -0.090517490464055134
         - 0.0039931686904660152
         - -0.017545667257229218
         - -0.027984476628041991
         - -0.01832625708054875
         - 0.0059680044903071359
         - 0.018016290391271245
         - 0.0075437304604905279
         - 0.0083463247299474363
         - -0.11534786389860008
         - 0.056567323266652134
         - 0.015761352375718102
         - 0.0037267611144424007
         - -0.086255660855885291
         - 0.014070479083422184
         - 0.029956651698688851
         - 0.21283790089092103
         - 0.0503199927125631
         - -0.0194292000132626
         - -0.026477847759666471
         - 0.10940699247042553
         - 0.046256357060445848
         - -0.076420047653245823
         - 0.020381322793507992
         - -0.043310053095536358
         - -0.02317688123011646
         - -0.01038275928732214
         - 0.022172445901291891
         - 0.0073049968561548096
         - -0.018710074661006711
         - 0.07397844337132789
         - 0.03572714315330628
         - -0.036742407769332158
         - -0.01852664768148668
         - -0.0035784240558879962
         - 0.29235368999571959
         - -0.0019859159332818134
         - 0.013076267341230657
         - 0.13375576578870552
         - 0.028258968057138758
         - 0.087534325263250862
         - -0.095681541740877465
         - 0.063690496416614978
         - 0.0010860965229683628
         - -0.012418104783150649
         - 0.037676002053113875
         - -0.017209284176652746
         - -0.0066767893789132495
         - 0.0084247583738021655
         - -0.055472557977385165
         - -0.057828358148488558
         - 0.012550099276622468
         - -0.011845342360277251
         - 0.01182966873339468
         - -0.015882682399390148
         - -0.018539662094843718
         - 0.012058264585464176
         - 0.025637194412753198
         - -0.0047926223504606074
         - 0.018840856621175107
         - 0.023341206376818479
         - -0.017421927088850288
         - -0.12671890897165591
         - -0.047172401033121154
         - -0.0041143932533103979
         - -0.099743623499916639
         - -0.0021878800334600474
         - 0.01047358137627361
         - -0.0032484506291405595
         - 0.007943200903749132
         - 0.012665501898654695
         - 0.0048480314841295993
         - 0.06127214126366276
         - 0.00096661928851776539
         - -0.012777950755566387
         - -0.026223838106789826
         - 0.020093984502783036
         - -0.010112997981663362
         - -0.052041378216239914
         - -0.060893635297991057
         - -0.16904418347532932
         - -0.018120382169677596
         - -0.054495572534178742
         - 0.047101055267237249
         - -0.032432353813783565
         - -0.045249572172592532
         - 0.0079777978866078271
         - -0.0151485609404329
         - -0.033334606220075606
         - 0.020556623628405244
         - -0.079814804072866688
         - 0.05124901375159123
         - -0.0092035206087032039
         - -0.021894042254156764
         - -0.020429577280813307
         - -0.017374531544503406
         - -0.026608483837960894
         - -0.0020118679646899409
         - 0.055090718112884622
         - 0.013914017618108506
         - 0.0039821995717202706
         - 0.016488513631319021
         - -0.015118010515303589
         - 0.0040391994345630585
         - -0.0033166778466125783
         - -0.078321967841709583
         - -0.0004449293451584011
         - 0.085769319074325182
         - -0.017400465800119377
         - 0.046886918627248975
         - -0.045610969028970313
         - -0.01132064561537155
         - 0.13162739647447932
         - 0.091383602161517863
         - -0.029829094099829326
         - -0.031653826503889267
         - 0.066740209862651126
         - -0.0033252181994803038
         - -0.002506142674040015
         - -0.036095664163482893
         - 0.001953707580022127
         - 0.07733624544262456
         - -0.0071222681820714562
         - -0.12175695520278089
         - 0.016120195462140878
         - -0.21387350499117391
         - -0.039808258527808178
         - -0.0015672528823627765
         - -0.030979329134115913
         - -0.062207416738924194
         - -0.078384520258309401
         - -0.02502224564957313
         - 0.05708123398571463
         - 0.037798642091972846
         - -0.024500543457936889
         - 0.10736741138933223
         - 0.017815783145019269
         - 0.004642711795160695
         - -0.068664159444115316
         - -0.067910460088927233
         - -0.014936638121417439
         - 0.0014275415193516021
         - -0.00093132877994109742
         - 0.031106379499340434
         - -0.018571627968796391
         - -0.11350461540188597
         - 0.091857529189611362
         - -0.016241942717410987
         - 0.043026814669033242
         - -0.092073878430402989
         - 0.018954292280322541
         - 0.061513385684834471
         - 0.072388694496672457
         - -0.056747492570913195
         - -0.013204003985406637
         - -0.0083944092576517561
         - -0.009918388809640433
         - 0.17242330883252169
         - -0.022694067824503075
         - 0.053656919159584406
         - -0.026393452156910278
         - -0.013930595043469501
         - 0.022368537637210813
         - -0.029205563064866862
         - 0.16168568556744525
         - -0.025258317367176944
         - 0.021567097060475625
         - 0.14201979014499197
         - 0.042923600251477595
         - -0.15206109059802389
         - 0.082137846501316517
         - -0.009579898209079377
         - 0.011379060666631838
         - -0.02239092007466692
         - -0.098872176090077521
         - -0.092021946820307246
         - 0.061070581524204297
         - -0.059512401921022411
         - -0.040549484298404603
         - -0.046053383164472085
         - 0.03099529418773361
         - 0.029778410723067916
         - 0.064491157584552275
         - 0.0051185034481156409
         - -0.099606050874843338
         - 0.032202981905945546
         - -0.040060877978064201
         - -0.041044978642715196
         - -0.11230581859802617
         - 0.049548631066175401
         - 0.022345453596772043
         - 0.057434991308083681
         - 0.12754644762805736
         - 0.072746667776504292
         - 0.030375816431005377
         - -0.041183269205729428
         - -0.11970215715280655
         - 0.13843015046945667
         - -0.050996680943844637
         - -0.062291912995119277
         - -0.10114711372681127
         - 0.011489033312818109
         - 0.13502686237752468
         - -0.023286939324010832
         - -0.059770825358773198
         - 0.025737532753080078
         - 0.060792188579685574
         - -0.030056118961182206
         - -0.037176471701270475
         - -0.038603843401740473
         - 0.018198224570128919
         - 0.060354694541170199
         - 0.12050208489312221
         - -0.055425669264562945
         - 0.094062012949878454
         - 0.051068529594140072
         - -0.066780296111479009
         - -0.006677476229189459
         - -0.13701004552411569
         - -0.053512030229804226
         - 0.049041626118718443
         - 0.063153823957569952
         - -0.12868377262433842
         - -0.027447154322463693
         - 0.13815993043232669
         - -0.10932257795216301
         - 0.070952943352413686
         - 0.05595078061880298
         - 0.069133470251628207
         - -0.026943606598719534
         - -0.047845658900315481
         - 0.02900368472950729
         - -0.013384588249009562
         - 0.047983218697911563
         - 0.042475437195119842
         - 0.003339384062276587
         - 0.086592285593118767
         - -0.16125032594620628
         - 0.019473686625120511
         - -0.11861355610273228
         - -0.058355281048967665
         - -0.031950141983578234
         - -0.049774797069131106
         - 0.075735079087574805
         - -0.085468011123399384
         - 0.0029536257962778666
         - 0.045998449486666627
         - -0.042080073712130038
         - 0.013700318737910933
         - -0.0031242900546629968
         - -0.095253520260201049
         - 0.077445655880376468
         - 0.018523860277583289
         - -0.11315875428732886
         - -0.080780508119868213
         - -0.076169790421532019
         - 0.071693107037333573
         - 0.025859150405559448
         - 0.095966250949825388
         - -0.060191321062845166
         - -0.064093377184273964
         - -0.061402717082545882
         - 0.048348743390621923
         - 0.073059317213815395
         - 0.19291636053945813
         - 0.13613969549924218
         - 0.074476169764502401
         - 0.093617299434113108
         - 0.0021397303268111869
         - -0.009538106299775969
         - -0.005181763090661407
         - -0.053640801444708286
         - -0.065313390590640674
         - -0.025991056733671809
         - -0.14053873075711926
         - -0.021842238799434577
         - 0.028223381197387487
         - -0.021042903134817912
         - 0.019599707719808276
         - 0.066531085171789836
         - 0.026972260553060779
         - 0.037393912782743864
         - 0.15631743731992415
         - 0.033454089875893885
         - 0.11642717397106464
         - -0.025844093920600348
         - 0.050411346341293441
         - 0.016784378866295021
         - -0.062503146861459441
         - 0.061541224593295897
         - 0.039099528768206313
         - -0.037415919375309158
         - 0.013995972700825657
         - -0.04234269433529058
         - 0.053038860295057944
         - 0.13089966100683562
         - 0.097930962895938528
         - -0.048702720663628234
         - 0.023791543534432226
         - 0.03774156636083368
         - -0.063831071795667216
         - -0.043110221703343748
         - -0.10611341862253008
         - -0.077292796296578051
         - 0.021317109590517795
         - -0.050358330255319314
         - -0.0043633974773063227
         - 0.10338224320173664
         - -0.047723386427626649
         - -0.018951771289769492
         - 0.097085933184302975
         - 0.0015824385587705379
         - 0.0077803582496461217
         - 0.049313659054633294
         - -0.21302029569600164
         - -0.099926966799958203
         - 0.071672533886778689
         - 0.10029431822671274
         - -0.12385221411074364
         - 0.028018702228595815
         - -0.01685327918671628
         - 0.081368195611245919
         - 0.012299099673863053
         - -0.070216980033335527
         - 0.066021369334761909
         - 0.092783222600949636
         - -0.0041135047147124546
         - 0.13621637333734379
         - -0.10204689323231758
         - -0.075954518457570327
         - 0.11403730245550603
         - 0.1231404983598352
         - 0.10183421449969979
         - -0.012736220562571074
         - -0.077247417070394508
         - -0.047220563223134837
         - 0.090916215288760663
         - -0.05803891842277293
         - -0.059676443016006754
         - -0.09281616666694989
         - 0.025140241549175477
         - 0.0043431107894433968
         - 0.024207103137969675
         - 0.017385468634441646
         - -0.012517690861831389
         - 0.0087049505842726766
         - 0.080706863010471835
         - 0.14657260654396517
         - -0.16091582644300079
         - 0.093521196008016699
         - -0.096797662135864757
         - 0.21450241599984513
         - -0.025662215182742129
         - -0.13228420811554356
         - -0.04117130391927841
         - 0.022247675829081878
         - 0.043469653457827689
         - 0.062209970411089395
         - 0.022801771872270331
         - -0.12295335843513099
         - 0.017826420170349157
         - -0.094439329015414519
         - 0.020379732535698095
         - 0.10708493258508886
         - 0.0080850900862320073
         - 0.11390824413818096
         - -0.11134977687521513
         - -0.10161085807383131
         - -0.1052866439543898
         - -0.13445454139854815
         - -0.007042864474601165
         - 0.25766291296406424
         - 0.011791014829197996
         - -0.12417363413933147
         - 0.10484489319064781
         - 0.062545944072445014
         - 0.0073834698547953761
         - 0.031854138012035522
         - 0.046030012837213301
         - -0.0092681283850346175
         - -0.10828764134045853
         - 0.0071858507082942251
         - -0.0024203027247780224
         - -0.035031625819818869
         - 0.078547847197196194
         - -0.13158707152917309
         - -0.012718873273342174
         - 0.027349479489964929
         - 0.01420059306435742
         - 0.096277058960651835
         - -0.05871854074983815
         - 0.16416401425806942
         - 0.053687390849975376
         - -0.16274032901632904
         - -0.11636953036243997
         - -0.013566286400343575
         - 0.0039502391701878798
         - -0.026932820402551266
         - -0.11772100134584097
         - 0.14431926680640239
         - 0.023783739733006893
         - 0.036433976858423617
         - -0.13927157386973374
         - 0.06399137923323453
         - 0.040577733768841037
         - 0.076345845442002014
         - 0.10256594018356822
         - 0.014681515580566018
         - 0.020056179128971147
         - -0.02267201403667346
         - 0.074934090751190938
         - 0.0013687050453192893
         - -0.088607290519148535
         - 0.035758613338505857
         - 0.072362213938450229
         - -0.023093711177314506
         - 0.013053334934253742
         - 0.09473210336016305
         - -0.05005938300226187
         - -0.060160461919625825
         - -0.14337222617061901
         - -0.036299831090439633
         - -0.028368243864786698
         - 0.044208468287304653
         - -0.04735744756857279
         - -0.10697499838390198
         - -0.0035340243037717566
         - 0.011106434112347369
         - -0.081597012302716779
         - 0.073075880717728345
         - -0.0053681339529756001
         - 0.036114586431027489
         - 5.9717557132130649e-05
         - 0.035910555089951869
         - -0.10861740312790029
         - -0.081184067498975346
         - 0.039486282524982763
         - 0.10805991199813347
         - 0.044521526157807828
         - -0.13899028296012522
         - 0.018829410842726824
         - 0.0090090623634233643
         - 0.11192053057020367
         - -0.058937966458153863
         - -0.042048296664909217
         - 0.017356718147989645
         - 0.12421982946655084
         - -0.071713990450506124
         - -0.010929365988068264
         - -0.084973356174449358
         - 0.057365689889366536
         - -0.03963743871739215
         - -0.0051742890559795078
         - 0.058325460714599202
         - 0.099103813098118235
         - 0.016193758307573022
         - -0.029011979023676658
         - -0.0066955267671798399
         - 0.027318576409050527
         - -0.067759240693737982
         - 0.011434083946914224
         - 0.11478809473856411
         - -0.0093233613008665717
         - -0.0021575320524569335
         - 0.013458245390324156
         - 0.055347827376205493
         - 0.098844274203920321
         - -0.005919284333468962
         - 0.057910281082144868
         - 0.057962875868354802
         - -0.034610845621665623
         - -0.0023917097815641408
         - 0.10006627333039489
         - -0.048267254205552113
         - -0.032732117945196433
         - -0.017434093853410666
         - 0.0081033870717999081
         - 0.13169494680797897
         - 0.015490248188368807
         - 0.10426922267583258
         - -0.086190807531781405
         - -0.022473692206091758
         - 0.086481950692099394
         - 0.093046093150694148
         - 0.12252780265123935
         - -0.062726176749738516
         - -0.014854135885660653
         - -0.076715012324021462
         - 0.027811195522203951
         - 0.091414266520629506
         - -0.003176870456974411
         - 0.029282959942093088
         - -0.11171001366096214
         - -0.006300747138481836
         - 0.1013354040359586
         - -0.025994801719090507
         - -0.0079582045851484019
         - -0.1255324882067605
         - 0.1117247834882643
         - 0.072877795105412882
         - -0.069016257379486717
         - 0.12891192259411566
         - -0.096436073405995457
         - 0.018067997642338962
         - -0.016679018213384793
         - -0.071780586891793341
         - -0.069604183703532552
         - 0.026354585430145235
         - 0.035026912245145862
         - -0.0069267400014641619
         - 0.11660132439986334
         - -0.11559917137318053
         - 0.016650654046350539
         - -0.097094065556658116
         - 0.09735730139591621
         - 0.000607868628511022
         - -0.15792720313055283
         - -0.031687895177745735
         - 0.069385135402976972
         - 0.035282937730373491
         - -0.00057955631938521343
         - 0.0020360333618971906
         - -0.031574418321649721
         - 0.073511929538696091
         - -0.13215711876907785
         - -0.081529685599844456
         - -0.065814530943601637
         - 0.1085573448446288
         - -0.052186096917448598
         - 0.17508499092458824
         - -0.10378937697760092
         - -0.0079372874708920418
         - 0.12286302700427622
         - 0.022953587270985711
         - 0.082196693262265447
         - 0.092349713798512631
         - 0.10154217532998353
         - 0.085866248916990698
         - -0.016908478257051916
         - -0.059302377961773914
         - -0.052682086252391513
         - -0.080504672603757724
         - 0.11698300149091478
         - 0.11084662134106819
         - 0.00096566664707314637
         - -0.13472798054683552
         - 0.068251340721216303
         - -0.090328361744071828
         - 0.025848517656218171
         - 0.16392380838176193
         - -0.0835643110580674
         - 0.014676456491208753
         - -0.036972499519847192
         - 0.1227259798813341
         - 0.022203601432840864
         - -0.10961665289655376
         - -0.12041025817106703
         - 0.081158498057613854
         - -0.006694990823204185
         - 0.0065675319218735755
         - -0.080587185003563488
         - -0.10198732151735472
         - -0.03063633518876753
         - -0.027557476611440666
         - -0.064875725373715235
         - -0.011769088182484681
         - -0.094821519549648695
         - 0.086922675325705662
         - -0.1005308346418638
         - 0.00073642391884809054
         - 0.012897839972254707
         - -0.1085239876300244
         - -0.080814307768154542
         - 0.20984033481094411
         - -0.067924278335395549
         - -0.12480193423872056
         - 0.088230760780510467
         - 0.086228051215590143
         - 0.09589949562632695
         - 0.22040940358598232
         - -0.15363835580229801
         - 0.25560899117804986
         - -0.14482456544691827
         - 0.1493837436747342
         - -0.26998354456969786
         - -0.11246205400428551
         - -0.10433781876529599
         - -0.10431443545930087
         - 0.11293119989077714
         - 0.013666808888175947
         - 0.15904120028516383
         - 0.092261762145386533
         - 0.36981022675564418
         - -0.096976495994875261
         - 0.044151661405123312
         - -0.10622414681250704
         - -0.11754549486948322
         - -0.25786825772736593
         - -0.1783654498642927
         - 0.085088020797742484
         - 0.065945530691652238
         - -0.36851150323325615
         - 0.14215591382705597
         - 0.18161623349626568
         - 0.19623001541062851
         - 0.068406661468366922
         - -0.14848773302949336
         - 0.093360151980081824
         - 0.041705983749465075
         - -0.18921413948920712
         - -0.22379078591736831
         - -0.023821315613444815
         - 0.081953099212375036
         - 0.17022474738979132
         - -0.082713230470355587
         - -0.19230111065729855
         - -0.10251778751756307
         - 0.056525124016984764
         - -0.20707386973728023
         - 0.10337036361773942
         - 0.041506033280906608
         - -0.051932311591617722
         - 0.40510317844216481
         - 0.28356480409542995
         - -0.14185353768449124
         - -0.22733622380729276
         - 0.23444603148708665
         - -0.10246313272292037
         - -0.17502663104509511
         - 0.34028774721923488
         - -0.12893780685595665
         - -0.050492077137778327
         - -0.12915138481507638
         - 0.10810276024525318
         - 0.090787459668878037
         - 0.03032458872897989
         - -0.06517492107489517
         - -0.076488195448168345
         - -0.033190156799406401
         - 0.10329579281510039
         - -0.04204062376204952
         - 0.47389546663207255
         - 0.024426389193234539
         - 0.13149362795279357
         - 0.22701499889331761
         - -0.054470839511739158
         - 0.12857778527059444
         - -0.24073288243207899
         - 0.18155767875654655
         - -0.00056791464558547851
         - -0.16947249293802064
         - -0.04072286807728473
         - 0.056043933962396382
         - -0.056128079698039644
         - 0.1975445706843352
         - -0.10448585060314776
         - 0.06212147083506258
         - 0.3294357112965709
         - 0.28562851007932122
         - 0.24222977287376563
         - -0.038802756997891943
         - -0.09365382829364062
         - -0.25923866225294845
         - 0.09754934987113674
         - 0.22626039814148963
         - 0.29721580353648003
         - -0.26377033603123201
         - -0.047685033024059353
         - -0.19454272553162896
         - -0.12378452817772047
         - -0.22418100968002821
         - -0.089938963529822141
         - -0.037143914394717883
         - 0.02636107433003692
         - 0.10223152235635787
         - -0.023652404727145891
         - 0.2196964556374936
         - -0.019955688602976897
         - 0.11395114351369509
         - 0.11264049075376856
         - -0.1464418360237382
         - 0.1021363421758371
         - -0.091464398442517317
         - -0.271898662189486
         - 0.059846656460500504
         - 0.06265548983701251
         - -0.38770486146735922
         - -0.06342313420421096
         - -0.11347753878108935
         - -0.042070962725772938
         - -0.066065626660411617
         - 0.060651299398086188
         - 0.14089948269048527
         - -0.0029845714932729113
         - -0.13384438736034052
         - 0.19233848689345467
         - 0.077148732966660888
         - 0.055931708174266251
         - -0.19696520330286335
         - -0.12186062881111
         - 0.01879962905714767
         - 0.10947252323410919
         - -0.077832759660900461
         - 0.12917027106777162
         - 0.25618480245977199
         - 0.099283049518951685
         - 0.099500415586147653
         - 0.038878383161822239
         - -0.079011537623209629
         - 0.13133675763123839
         - 0.046487653103504563
         - -0.17988477119743884
         - 0.097923182363797934
         - -0.064364327454929718
         - -0.095356506401823513
         - -0.0563812796082791
         - 0.090140443519110852
         - -0.14967784123863451
         - 0.17668787062539401
         - 0.21675430394609588
         - -0.03905582790475394
         - -0.054145210237579698
         - 0.18221845117261129
         - -0.14583544674693394
         - -0.040512745611817239
         - -0.043895693164986482
         - -0.11669759498847959
         - 0.14011738902831525
         - -0.1208665538500219
         - -0.16099214356558503
         - -0.054616956056595119
         - -0.44167008995475532
         - 0.045623518508800268
         - 0.087913983285353312
         - -0.057930626555881271
         - -0.08732581156810558
         - -0.15905860402422894
         - 0.10449094724089417
         - 0.11211472547802824
         - 0.12125361430862341
         - -0.28964024980155573
         - 0.15272113476032212
         - 0.037261843962502546
         - 0.033259996683323037
         - 0.10209165802622859
         - 0.056209787662885903
         - -0.036611213722453059
         - -0.096562632915429811
         - 0.076584125734475678
         - -0.098239293075671891
         - -0.044672118206304616
         - -0.16142716590634607
         - 0.21785776809771421
         - -0.14612298669320864
         - 0.075037921831093826
         - -0.092345989376080476
         - 0.055404762189469846
         - 0.055887407280226037
         - -0.074220488327644843
         - 0.074464680061801222
         - -0.059358662233009389
         - -0.24361440190231876
         - -0.091178464464908793
         - 0.30212732623686223
         - -0.065065966551904497
         - 0.080221303776673511
         - -0.091894288619778886
         - -0.3333331877202631
         - -0.094867888839705206
         - -0.05291551767903082
         - 0.29400315308110253
         - 0.09161018587323061
         - 0.30376256840965904
         - 0.25793730863361608
         - -0.07629271085190277
         - -0.33411429647553792
         - -0.050751278464352213
         - -0.003570832717307554
         - -0.016875901291196389
         - 0.011153090674450453
         - 0.025789043736683247
         - 0.17572486554413952
         - -0.027379478798263201
         - 0.18709403219104923
         - 0.024129193822922612
         - 0.097969214528655868
         - -0.19831961935940845
         - -0.036757068725314701
         - -0.047431905334228454
         - 0.0016684088339310847
         - 0.040053979744317708
         - -0.0084867088105418063
         - 0.12179795641582578
         - 0.00074876600816538893
         - 0.02102212975374864
         - -0.056374361683990584
         - -0.01688393073948424
         - 0.043011599200846913
         - 0.011300092220706187
         - -0.18838304752755497
         - -0.1104307491366458
         - 0.010872834263843705
         - 0.0075755426947327672
         - -0.011088826971692901
         - 0.071638230515632437
         - 0.14598516940053591
         - 0.01007170792382195
         - -0.019935958710937611
         - -0.077393781573245307
         - -0.0012350734490888437
         - 0.11594001730462214
         - -0.10074160293883078
         - -0.079965104450110486
         - 0.0090033950101142263
         - -0.0029680979106971542
         - 0.11071789323418584
         - 0.0047945129612353482
         - -0.067504548689691773
         - -0.085907663864264641
         - 0.023349501074820912
         - -0.066756719688812832
         - -0.037881996506172633
         - 0.044174871110453151
         - 0.021284270426045714
         - 0.010912245691692605
         - 0.14712616464474174
         - -0.078935055597698381
         - -0.1454497318249906
         - 0.076599436780070085
         - 0.058589502768759752
         - 0.023733506590656005
         - 0.22740339214011393
         - -0.06880245775580307
         - -0.038415581708293144
         - -0.049743878599637012
         - 0.035546328416525247
         - 0.029986805976996208
         - -0.012535378393426635
         - 0.017920762781700367
         - -0.13442487578882498
         - -0.045154805963458437
         - -0.020984776909181681
         - -0.047423403721477318
         - 0.039387345358537038
         - -0.0027154224277757596
         - 0.046563814113621198
         - -0.014059820572407847
         - 0.022013701811655531
         - 0.029021039031361235
         - -0.066586485649066315
         - -0.023051567425667874
         - 0.038628826803849353
         - -0.11620940736305374
         - 0.026017153212752553
         - -0.007359134552315896
         - 0.0076527402599495609
         - 0.040080845230475726
         - -0.018816473556229982
         - -0.021189615185713467
         - 0.21939912703460077
         - 0.20869971196966017
         - 0.17458395208774244
         - -0.038525038830623887
         - 0.0076005964917392234
         - -0.19176347250002693
         - -0.011154957727825755
         - 0.16790131319799648
         - 0.25162220990447781
         - -0.20728616920175674
         - -0.05155763704976625
         - -0.14446679421273526
         - -0.067394404352133203
         - -0.14816973896244068
         - -0.071041912491790912
         - 0.0073670940090196273
         - -0.0052431478575670877
         - -0.016989380322452258
         - 0.0079971752240696956
         - 0.15108359101634172
         - -0.0013817571968544006
         - 0.091800512351643382
         - -0.010287490864397186
         - -0.085138188037568271
         - 0.005870810021423107
         - 0.00042098325307740185
         - -0.20287123396332835
         - -0.026473005665711896
         - -0.015901686123904048
         - 0.011198785738161382
         - -0.01767478712261299
         - -0.069288007159899134
         - 0.012930028500104114
         - -0.019805181246928795
         - -0.013858518032336795
         - 0.045547866938041477
         - -0.011910913471196912
         - 0.031508973327119043
         - 0.11572455994347773
         - -0.019567389512062303
         - 0.04651698320618336
         - -0.13586727570096541
         - 0.015378054582146089
         - -0.028863310807446526
         - 0.14631179624892762
         - 0.0031351792907442638
         - -0.078714749958390326
         - 0.18867476090827789
         - 0.046266174546438638
         - 0.041755561372186098
         - 0.050119716247255378
         - -0.0046111147234396055
         - 0.069223776532306602
         - 0.0040829645542626719
         - 0.013336332393160037
         - -0.023593713114322068
         - 0.030541370335577158
         - -0.032228241629932028
         - 0.023451804315078328
         - -0.010964874389733637
         - -0.080072132041198299
         - 0.090848000065805831
         - 0.01657772915348894
         - -0.05283835884091885
         - -0.051037486750503895
         - 0.065329242330202555
         - -0.10005644521517776
         - -0.0021204232508389453
         - -0.068754756861105812
         - 0.019502795163631226
         - 0.03665003797140514
         - -0.15753170532600333
         - -0.02474220821450953
         - 0.015433039890480303
         - 0.0095935174833871525
         - 0.037418642651615847
         - 0.035543997144910078
         - 0.040861763629639683
         - -0.052846314043294852
         - -0.0075050653184379071
         - -0.014275283544497799
         - 0.094639636931877838
         - -0.0078494662341058556
         - -0.19529473688937865
         - 0.044710005318993565
         - 0.047255348658429196
         - 0.0022401603783291828
         - -0.013733629085417707
         - -0.013882223818904742
         - -0.013886772717258505
         - 0.047191069891625415
         - -0.00075201136262588691
         - 0.01992598175879624
         - -0.058352077352275634
         - -0.087949830955592084
         - 0.0027168364243765758
         - -0.018787585878214368
         - 0.050172663775314187
         - -0.12316375932394817
         - 0.02252071781059831
         - 0.12778078998257383
         - 0.064079765219734144
         - -0.018677993955582752
         - -0.028768249792100655
         - -0.16307052045771844
         - 0.0070998728374413048
         - 0.026554111955285443
         - -0.014539701164717166
         - 0.057786430340064143
         - -0.0086666756386152496
         - -0.20533152959260639
         - 0.0013003167673685246
         - -0.010155247856578757
         - 0.025343406984579289
         - -0.010789158169317544
         - 0.19820274748315733
         - 0.0041864214419744484
         - 0.0092350582420717212
         - -0.082361557386130615
         - -0.046017949646803898
         - -0.042486454068653472
         - -0.0029865707138777777
         - 0.047941114606968857
         - 0.06865756191126994
         - 0.086415528602852607
         - -0.021541087270200314
         - 0.07090237083989949
         - -0.019235498104690919
         - 0.054431201144662593
         - -0.064843932444232505
         - -0.029996857741071848
         - 0.014017857441083668
         - -0.035605721852871891
         - 0.061421582813003903
         - -0.016318580174383632
         - 0.046721632942343064
         - 0.088995038388228892
         - 0.011665767166047773
         - -0.077528714903238649
         - -0.025336131281639414
         - -0.071978798558727783
         - -0.10955953649188366
         - -0.071150469329916616
         - -0.073619796092204912
         - 0.019599783366624789
         - 0.028389898243093573
         - -0.019229408726758709
         - 0.049502814793687108
         - 0.08220796438542792
         - 0.027907171750382792
         - -0.0034562973645464608
         - -0.04562778258864969
         - 0.03537288807357717
         - 0.13674488333454715
         - -0.091148597785465524
         - -0.048931268260969107
         - 0.015278485933809011
         - 0.052443947037016943
         - 0.048115764577529488
         - -0.032749522789787204
         - -0.0057420287690588814
         - 0.016700845750612456
         - 0.032330598498064259
         - -0.065769851013236291
         - -0.0016715351435521578
         - 0.033441233326530796
         - 0.010458363659693446
         - 0.0031610952551746341
         - 0.063896060638089572
         - -0.038674485441794998
         - -0.089622747814861459
         - 0.0097633840147080056
         - -0.047704584987546213
         - 0.024009863823930645
         - 0.040722473543263582
         - -0.080506349086045897
         - -0.068084963504727508
         - -0.071008648318653111
         - 0.034908316241739776
         - 0.045888873207159273
         - -0.021914865819069242
         - 0.021129523473753683
         - -0.11310699143327611
         - -0.043076869564940425
         - 0.02384139297095661
         - -0.042988694617183687
         - 0.068904743814381206
         - -0.0079279930668584766
         - 0.060781076365978313
         - 0.046669429830762832
         - 0.014202080593702553
         - 0.034898893491345742
         - 0.0046603230107366469
         - 0.080875190545461356
         - 0.027309958343287751
         - -0.047509806924587825
         - 0.039224983380755592
         - -0.0087498944094907775
         - -0.013453464004802362
         - 0.076684507733280505
         - -0.0075112438773930089
         - -0.021176293131313542
         - 0.071271765277203469
         - 0.073533522947912613
         - 0.09259844102876777
         - -0.040345666173431022
         - -0.034569356705266938
         - -0.086391904989709389
         - 0.082907904604954702
         - 0.083369239217675389
         - 0.1153296515376032
         - -0.074796645940764461
         - -0.046025798975840262
         - -0.081564493769592669
         - -0.074260285562582101
         - -0.081522681770193367
         - -0.068301930837621025
         - -0.005359754368394796
         - 0.014309876795488988
         - 0.02645092091491134
         - 0.023597993878880057
         - 0.11970773214253837
         - 0.0033553022809182337
         - 0.067600058914809885
         - 0.05385224841307619
         - -0.061597725994110057
         - 0.02554009215226459
         - -0.0058499772095274892
         - -0.081585861603495222
         - -0.023147209588253333
         - -0.024365259042288513
         - 0.022606291856497051
         - -0.057011863621807574
         - -0.083050840088381025
         - 0.043148770096697389
         - -0.022968156460411362
         - -0.028295246094323264
         - 0.080150878494908442
         - -0.0091509543637157114
         - -0.048409083425190867
         - 0.066277183918485236
         - -0.0072575693046059118
         - 0.02965924886333185
         - -0.055752227225529916
         - -0.09949616318234375
         - -0.083773480368264014
         - 0.12232728841769623
         - -0.037944463619600813
         - 0.069417358750020169
         - 0.074045487002842747
         - 0.040766679902538787
         - 0.053050963918397996
         - 0.042554241771203115
         - -0.048581085553297709
         - 0.042322315747483706
         - 0.0097140874914731588
         - -0.051053359000229406
         - 0.061565409586071318
         - 0.018955130817177063
         - -0.048300219394296892
         - 0.031036332096371706
         - 0.020032056514711367
         - -0.065503781207816802
         - 0.11934128259482674
         - 0.025428522159615028
         - -0.02582513939805901
         - -0.06366593056520943
         - 0.081593551597180028
         - -0.064212449707020641
         - 0.0070673237118857417
         - -0.070074258746029794
         - -0.044297225405557153
         - 0.0067526789381490366
         - -0.11726045190337529
         - -0.022268384424138761
         - -0.0034124729398354817
         - -0.041833046883312429
         - 0.035317618293136635
         - 0.051064989327835347
         - 0.03859171758248111
         - -0.076221293792596095
         - -0.0056002746556277055
         - 0.033817162184150644
         - 0.12027009914059243
         - 0.058272384227618997
         - -0.056747061605162769
         - 0.035880225371843592
         - 0.042263815047376758
         - 0.01839132213829615
         - 0.0028931882851603394
         - -0.016633570275628753
         - -0.025179898828775558
         - -0.052019329606057485
         - 0.023309451062331864
         - -0.031008529308659123
         - -0.050833846423315898
         - -0.087276091628680011
         - 0.038734503678093064
         - -0.086714921404815473
         - 0.071873019792022597
         - -0.11415166527591405
         - 0.01557490983260597
         - 0.096549196059142625
         - -0.034279807279818685
         - 0.0010493883048975547
         - -0.0292975250764363
         - -0.10453659830356794
         - -0.021369578124059201
         - 0.0091816170980229695
         - -0.02963294570986225
         - 0.083490612190007488
         - -0.036476195638777242
         - -0.052710037553717469
         - -0.021688639018278003
         - -0.018311744745555657
         - 0.0057866059915311378
         - 0.010538479418771977
         - 0.060442509457561223
         - 0.013470072841617465
         - 0.0089867303286709777
         - -0.13377317895203761
         - 0.025969372349085994
         - 0.15280387842595908
         - -0.11037978133235639
         - -0.084312228464438171
         - -0.034685619327983926
         - -0.050158017368683791
         - 0.049382097606903777
         - -0.13914008862401492
         - 0.16100138821991727
         - -0.034077152134417012
         - 0.050754286995566708
         - 0.053593226814404996
         - 0.10295633437886276
         - 0.14893954091041064
         - -0.034413028643057016
         - 0.0087799415612939379
         - -0.048674823082656374
         - -0.12486752772168627
         - -0.12336458785706932
         - 0.072889714556288163
         - -0.012073380268442985
         - 0.18888903408754948
         - 0.15524617588333187
         - 0.054191679235072773
         - 0.051616415903706386
         - -0.037601967055709
         - -0.080541211248069844
         - 0.19621427077522149
         - -0.031346075664993811
         - -0.038734164067092638
         - -0.2148257895401107
         - -0.080901288644605801
         - 0.029659591079920479
         - -0.094831129304411524
         - -0.0773751811299591
         - 0.054816095048065519
         - 0.10518526143223815
         - -0.01214267880985433
         - -0.083584597420103407
         - -0.039576799498580645
         - 0.098109209655564689
         - 0.094102914413936256
         - 0.015916077392152072
         - -0.03885949429691439
         - 0.075508215831240566
         - -0.15263900149372323
         - -0.053169263096964556
         - 0.059952136491401686
         - -0.22044330110078791
         - -0.11013391262144898
         - 0.027576630650928611
         - 0.079231297757730468
         - -0.14175220274246994
         - 0.17482248286548976
         - 0.076058300156175096
         - -0.036024888876664413
         - 0.086287773852752728
         - 0.074201565222550947
         - 0.015173255849309569
         - -0.043725895937443297
         - -0.023469683576510643
         - -0.00017917122285497056
         - 0.10341676869855763
         - 0.053044033673980424
         - 0.079340907477783551
         - -0.11920183784219657
         - 0.04403839045744537
         - -0.18648290328072209
         - -0.0025001310182486752
         - -0.02845492064583777
         - -0.14789988708669685
         - 0.065015702333050929
         - -0.05632992821485569
         - 0.14191550935967664
         - -0.1339319432966771
         - -0.14551587314579609
         - 0.034211661297558878
         - -0.0057342397141226503
         - -0.063936379692091275
         - 0.050160621178503229
         - -0.054780321256992302
         - 0.045284841688847048
         - -0.087274340329346708
         - -0.062512183668090235
         - -0.11419880718740279
         - -0.06594464183126679
         - 0.035199068477472409
         - 0.083861740673168372
         - 0.11741294241722811
         - -0.115792199523597
         - -0.0656692996410628
         - -0.11693013434168648
         - 0.11572573935916115
         - 0.048925038943200452
         - 0.079223407775386973
         - 0.0093557775872262494
         - 0.10868524076044683
         - 0.076886685852244507
         - 0.026571793842863949
         - -0.015406804575175882
         - -0.13018271719133015
         - -0.029942342926783737
         - -0.073229907056286472
         - 0.00045010445073808591
         - -0.012225586423168138
         - -0.1547704422345286
         - 0.037758915060758423
         - -0.12036081139183245
         - 0.11278411692476721
         - 0.066695939421555356
         - -0.092367742624602109
         - -0.088474699698974882
         - 0.19342418902451711
         - 0.071377565222955353
         - 0.00094952316659681639
         - -0.0094367394023587882
         - 0.026462205061056246
         - 0.016488406517180434
         - -0.019311292320637961
         - 0.025634478945570933
         - 0.12948553963949608
         - -0.070136958733176186
         - -0.10936857299836186
         - -0.054097619626868404
         - 0.052983702762043006
         - 0.13767010503953969
         - 0.067757586830181793
         - -0.052822674357706392
         - 0.082423271585978328
         - -0.16417741852043585
         - -0.15140906980545837
         - -0.024517884824503546
         - -0.030382187793741237
         - -0.04711303191804158
         - 0.088761884400485908
         - -0.027096807915185407
         - -0.036057592865893752
         - 0.11995446235912009
         - -0.15846076333730247
         - 0.10224899914467979
         - 0.043543785243816878
         - 0.039981110906314357
         - -0.12772760624882964
         - 0.039767963755918109
         - -0.097418153130060733
         - -0.08552284225351954
         - 0.093084031432433281
         - 0.021702198674478784
         - -0.056447721000586426
         - 0.04209444062018667
         - 0.020227213630646352
         - 0.076020807178797972
         - 0.15563013652904809
         - -0.12996666037818544
         - 0.058757357226220081
         - 0.12786534073928188
         - 0.060379207307190728
         - 0.23231491318184622
         - -0.17290209167994927
         - -0.029694864811532166
         - 0.14176512540330891
         - 0.020146458243065542
         - 0.07861851784404883
         - -0.13467321819339373
         - -0.14004142962711819
         - -0.099360031394228443
         - 0.052309358407589969
         - -0.074945542172784901
         - -0.057392234598075395
         - -0.070371693510353994
         - -0.1297055639697397
         - -0.084895621146541742
         - 0.020132914452671798
         - 0.16745204400114461
         - -0.083817409086332673
         - 0.14397026733727802
         - 0.030306749348743198
         - 0.16496879896547953
         - -0.099259592628918994
         - 0.027907885628121836
         - -0.027892526551115751
         - 0.074906968971618609
         - -0.027990707093446164
         - -0.10635824655700572
         - 0.23218495553044302
         - -0.10789227687261706
         - 0.021831681720047156
         - 0.074503325930766626
         - 0.09977045950114713
         - -0.13584876364338061
         - 0.039627574549585591
         - -0.024734754939111082
         - 0.081699395515017245
         - 0.045128935012733781
         - 0.11528562478942631
         - 0.073646154653265572
         - -0.14934507452863174
         - -0.1936490506023838
         - -0.053173642105195054
         - -0.088122647313145147
         - 0.092356092291921627
         - 0.22551078672671204
         - 0.08787150849147779
         - -0.068746881930979928
         - 0.094327834908900426
         - 0.014008829352554285
         - -0.059296204957558406
         - 0.0031963464042360844
         - 0.11706000220892017
         - -0.03996762135224248
         - -0.0986969123149741
         - -0.0030687493763733383
         - -0.0098871305302412164
         - -0.015922554575345523
         - 0.21857900499339836
         - -0.10889603310916252
         - -0.062860658952731449
         - 0.078320281323968802
         - 0.015021018354018537
         - -0.011052746954048114
         - -0.22856408005397608
         - 0.32472592488670543
         - 0.071725791836076205
         - -0.092547392472763904
         - -0.027962583326345769
         - -0.038187926328454573
         - 0.01132327619134221
         - -0.066967211203062954
         - -0.2310852767325545
         - 0.28513396660951235
         - -0.0034393673406477076
         - -0.00012259161415659507
         - -0.27493518288205915
         - 0.085315689328022984
         - 0.12031895479829871
         - 0.041317280678457628
         - -0.047150951165631984
         - 0.034389772433841913
         - 0.036290188227526637
         - -0.069036037632219729
         - 0.038748118970552657
         - 0.0055552635805897373
         - -0.052307179646123407
         - 0.11023596593926918
         - -0.011551239267935212
         - -0.073733797231665149
         - 0.085358042396325801
         - 0.13307038345070227
         - -0.12010998410841046
         - -0.069395078351305123
         - -0.29132880767074271
         - -0.038458086737245781
         - -0.016718459611627733
         - 0.023113543151499161
         - -0.015606141208549662
         - -0.10627566578537288
         - 0.14927296109780139
         - 0.030511172598143194
         - -0.012896801573502252
         - 0.20857515908067542
         - 0.031691046767230203
         - 0.017876290603414651
         - -0.02674305784962203
         - 0.080279797344263645
         - -0.13325895606211022
         - 0.016734736558178174
         - 0.15999285706606492
         - 0.082706952902218994
         - 0.1222095502759477
         - -0.31932973889066796
         - 0.063919906531205051
         - -0.059140337695234753
         - 0.079307678803256995
         - -0.073550241023407792
         - -0.12879681485672789
         - 0.10021863987062042
         - 0.057808909541748374
         - -0.23895026607720382
         - -0.011225444102490953
         - -0.11373817832388068
         - 0.06684269455846617
         - -0.033346914877856994
         - -0.065689830928785428
         - 0.17587211198422154
         - 0.11345848564024508
         - 0.051984259725178145
         - 0.0031405259043063355
         - 0.010804315038637401
         - 0.086818579402220916
         - -0.037234209533549445
         - 0.050362067952315244
         - 0.040148266181502329
         - 0.010469314114570865
         - 0.066770020552671769
         - -0.002783587085616537
         - 0.12899915530684641
         - 0.34890757015141627
         - 0.091850240269262196
         - 0.044383480079072023
         - 0.14448498082220107
         - -0.036750011873505434
         - 0.001929357364858245
         - 0.074727586762551521
         - -0.10762058024847937
         - -0.026236552634872339
         - -0.049274071427470631
         - -0.06674904015070221
         - 0.073477281810830172
         - 0.017305792269412812
         - 0.070730495288162915
         - -0.071039088255968372
         - -0.049212036882853229
         - 0.11671966376877821
         - 0.10584989136761339
         - 0.26752722648201216
         - -0.0066064072986507958
         - 0.08995684986796422
         - -0.093629667836299182
         - 0.092047683650809731
         - 0.10083832193702078
         - -0.049244718956870201
         - 0.10950844765864597
         - -0.078004362206225253
         - -0.021790333272730184
         - 0.11160341971362779
         - -0.12037681177745785
         - -0.017882755372331725
         - -0.041468707198838606
         - 0.18612898163397595
         - -0.026817271567469481
         - -0.035618328281241132
         - 0.10662673676338674
         - -0.03087223654569974
         - 0.0054677396575272645
         - -0.089767503974576793
         - -0.15012375937185626
         - -0.03867796713205756
         - 0.0043170785210924177
         - 0.03441470844336153
         - 0.059733443976412767
         - 0.074153900231523573
         - -0.14989251542091017
         - 0.085465095712536299
         - -0.093015460042020728
         - 0.07277101115318145
         - 0.024615850185287346
         - -0.36359189926974461
         - -0.12320300433006989
         - 0.17329002282898404
         - 0.11803212528015776
         - -0.055604795062739014
         - 0.00178587670071463
         - -0.051367253245429706
         - 0.16888749478523729
         - -0.10796522498423837
         - -0.23311853805854441
         - 0.029569352157321125
         - 0.23462672713370389
         - -0.060467411999704575
         - 0.28519001985606346
         - -0.16027240366012344
         - -0.061568851393999258
         - 0.21841600272516939
         - 0.11777873323608411
         - 0.21246737616854394
         - 0.081119139274844945
         - -0.014482722939938264
         - 0.027485714017466807
         - -0.03903248307243197
         - -0.16169938444749923
         - -0.13492143194038067
         - -0.18072552800156882
         - 0.10155894436738196
         - 0.12087405408790414
         - 0.020616151120034926
         - -0.11634999719684112
         - 0.034735576336024428
         - -0.090065485555417615
         - 0.10151512353027872
         - 0.30680099090932211
         - -0.18654795123412185
         - 0.062706326510727689
         - -0.12831270360176222
         - 0.33504734711041251
         - 0.01337683392518102
         - -0.29095461070248002
         - -0.15027733542692631
         - 0.1056363546625062
         - 0.019512620202203117
         - 4.6186573827270458e-05
         - -0.049273299760046269
         - -0.26092617223914405
         - -0.01616522052736339
         - -0.1212758078391315
         - -0.034983340588223832
         - -0.040022719419608298
         - -0.076545759024775575
         - 0.21673812251993216
         - -0.24680160120934333
         - -0.2071328902527996
         - 0.040045889258348885
         - -0.26443946052239581
         - -0.092430935575188222
         - 0.42115478972804293
         - 0.11011702332180573
         - -0.16727183447705946
         - 0.15042079582326631
         - -0.017986572930044329
         - -0.10285296136733542
         - -0.16762622580921507
         - 0.11912219644615861
         - -0.19852021384853716
         - -0.20728487835819157
         - -0.081963630838406798
         - 0.20483721525246665
         - 0.034457723502922658
         - 0.2744232074590599
         - -0.13555608309367731
         - -0.095428547886104137
         - 0.067306706161303159
         - -0.11303170827054365
         - -0.03772280931048947
         - -0.23570634951306843
         - 0.26578020316760376
         - 0.10684860355748028
         - 0.011242119007538675
         - 0.046667986169307007
         - 0.16931560532363399
         - 0.10328861322885007
         - -0.059620048507651735
         - -0.12686017266927221
         - 0.20368533404732525
         - -0.068601063254232458
         - -0.14159637675214978
         - -0.22867794420738541
         - 0.073893619795743964
         - 0.22346484640152681
         - 0.037659007414564759
         - -0.12835821764364141
         - 0.088530284754238506
         - 0.12237455163325292
         - -0.091986218458804628
         - -0.0032156760690720495
         - -0.10056358485949471
         - -0.071845535844889771
         - 0.20455834506250956
         - 0.27587100682404808
         - -0.067350357805875324
         - 0.069907094997160135
         - 0.16887230387639837
         - -0.1439153193235285
         - -0.083824070778829432
         - -0.21358434224803405
         - -0.16411908793158345
         - 0.072773200527159007
         - 0.11881405121938665
         - -0.30962170538799438
         - -0.072278741879993086
         - 0.24025037786276998
         - -0.23062004567960553
         - 0.097657507958780476
         - 0.18816761370050747
         - 0.053374242458115229
         - -0.04519174109553839
         - -0.046091142837766629
         - 0.078660204581652002
         - -0.16827827826189262
         - 0.11958432489191537
         - 0.30058801524689249
         - 0.109346459553578
         - 0.14713884926315654
         - -0.35848073914802131
         - 0.072295628027141887
         - -0.11449002799723426
         - -0.10388757555815925
         - -0.079784487060109086
         - -0.13196560436390645
         - 0.22881032018566103
         - -0.099305268629620774
         - -0.29906532382774242
         - 0.10743394113745339
         - -0.16877682788072226
         - 0.074997648289836363
         - -0.017720739368628769
         - -0.05002328502962438
         - 0.10758197330719894
         - 0.14093962693229115
         - -0.22203831007079416
         - -0.18882228676784205
         - -0.14089376423781039
         - 0.12190060970961114
         - -0.0097334411112120055
         - 0.17854412422874016
         - -0.014459348308601181
         - -0.14937646127140464
         - -0.22090747518498413
         - 0.20417143453228886
         - 0.1551565225598131
         - 0.32893362375872232
         - 0.14701591467812811
         - 0.13661945276911111
         - 0.33748783493766898
         - -0.039047451562714781
         - -0.0024628883364296423
         - 0.089850900832063721
         - -0.11915443590028676
         - -0.12101674122935849
         - -0.056284013116934525
         - -0.25386690572400267
         - 0.060338999224547822
         - 0.082400697283072824
         - 0.12752845017975412
         - -0.081619108788911002
         - 0.17166533226651468
         - 0.1060341033020014
         - 0.13581343862731457
         - 0.20671291116025847
         - 0.025296193270753723
         - 0.15671393284309504
         - -0.15171691271540724
         - 0.09168719458940025
         - 0.17244900229002461
         - -0.054592713992877323
         - 0.089548393529921957
         - 0.022901871113195062
         - -0.11057776044898604
         - 0.13907711830996525
         - -0.14430142794439588
         - 0.10764335968535771
         - 0.057408908480366762
         - 0.17295763627784513
         - -0.14381221946304321
         - -0.0064834685187098728
         - 0.019411629479962632
         - -0.23781233251048214
         - -0.051626613213833245
         - -0.076388367849889741
         - -0.19565759929737481
         - -0.0024046892938010028
         - -0.068466211924953849
         - 0.029104938988142294
         - 0.25492612403524983
         - 0.0050238986468969906
         - -0.19070456194409227
         - 0.070281826292204003
         - -0.13507337021799434
         - 0.12979450318905922
         - 0.079176558113183179
         - -0.2989754354156503
         - -0.23210428466554089
         - 0.27605717145885739
         - 0.17424401257287433
         - -0.18014039215613914
         - 0.084676393690507154
         - -0.045252364742872947
         - 0.23101382090251957
         - -0.012234711139067185
         - -0.28514824828618701
         - 0.14435537793623787
         - 0.20759542111799148
         - -0.049113543500507194
         - 0.24991498260713821
         - -0.34172057333746586
         - -0.078159529230564448
         - 0.3095619992433935
         - 0.20443773262882428
         - 0.13257460173817573
         - 0.1048683929183314
         - -0.14929194976643589
         - -0.02927741642520354
         - 0.18592321443997434
         - -0.173594735197734
         - -0.14208904019805788
         - -0.11217072879029066
         - 0.17748461350796577
         - 0.13894272789152984
         - 0.01994490580229815
         - 0.011003320294258429
         - 0.039868374645608884
         - -0.082358146182545541
         - 0.13046198773398285
         - 0.30529578381138311
         - -0.26892975693236643
         - 0.060605130709470774
         - -0.17093248892146892
         - 0.33819880818287779
         - -0.017016930004125561
         - -0.30423016886329735
         - -0.049695193461891642
         - 0.13086321147162605
         - 0.039550457977771195
         - 0.1260602038142965
         - -0.036166277662585372
         - -0.21392631099309639
         - 0.014311841335392235
         - -0.18440119911111169
         - 0.0079776064929180882
         - 0.21112810200412155
         - -0.12297723100156638
         - 0.12522410551188498
         - -0.2235208631383245
         - -0.27953226499036377
         - -0.18913845405845736
         - -0.15293410449793227
         - -0.10614540406315892
         - 0.23610741209069447
         - -0.027290668901922333
         - -0.042862532266440372
         - 0.040718687972164297
         - 0.027221255454407477
         - 0.0022326189077376047
         - 0.091203040275957589
         - -0.0093827479992734074
         - 0.12602807487527001
         - -0.015754447645784857
         - 0.050757195607672008
         - -0.14519356489164945
         - -0.041230712823024214
         - 0.0057107971692848987
         - -0.065643905272295994
         - 0.00037230418708348597
         - -0.0043738257208076033
         - 0.070846009164329093
         - 0.032604640981358159
         - -0.03098923284048
         - 0.025352561347873139
         - 0.011251426186371666
         - -0.032156614520861694
         - 0.003293489070512661
         - -0.08768061970224289
         - -0.047112155838095228
         - 0.0039018624974608931
         - -0.029265992305044904
         - 0.016675551574499903
         - 0.048006375375733296
         - 0.092698845151981166
         - -0.032688991916238426
         - 0.012326646670836629
         - 0.023396921008356476
         - 0.021977589356288168
         - 0.15668672281281734
         - -0.0089886835898376483
         - 0.013898128242041986
         - -0.0023622090538326754
         - 0.020640613626592159
         - 0.078280193558708397
         - -0.027666320292186623
         - 0.059396972430204482
         - -0.049604280185607738
         - 0.020385716177866078
         - -0.00076625558669374076
         - 0.0029307257204738142
         - 0.014837607686265809
         - -0.014316248566069258
         - -0.043160608984466428
         - -0.023320779326464085
         - -0.044124077864796503
         - 0.0017855507315792467
         - -0.037635089532428445
         - -0.025729447252869554
         - 0.0046778910170627644
         - 0.099875313432165116
         - -0.053185161746182159
         - -0.0051077764320715952
         - -0.031766285802925925
         - 0.042275408979969904
         - 0.022886438150030438
         - 0.0034824913562706691
         - -0.021460344322166449
         - -0.11497841080151915
         - 0.019595084374609804
         - 0.021593066690430981
         - -0.02067058134161907
         - -0.091677050972154353
         - 0.0071562042960429898
         - 0.0059348709702737737
         - 0.099711409670252826
         - -0.0098810820917460268
         - 0.021934764465555132
         - 0.063952831444505503
         - 0.031431537450497621
         - -0.0046202113624356014
         - -0.073426666181842376
         - -0.011932855841905591
         - 0.013897594611715568
         - -0.018401345141408443
         - -0.0013796098668867158
         - -0.0024703815293345482
         - 0.025684946659322971
         - 0.093544071800959153
         - 0.09864139249365747
         - 0.063940846047859948
         - -0.029865177434965161
         - -0.018380643414988677
         - -0.084823889542641306
         - 0.0162465297584398
         - 0.063573627986224401
         - 0.071396401346666291
         - -0.14732614164983437
         - -0.014445971658602275
         - 0.060266850485263514
         - -0.038790767710965547
         - 0.032762779087326534
         - -0.021688974821039621
         - -0.01845719924723677
         - 0.0045408284932834915
         - 0.019673157771618582
         - -0.0030470907361867597
         - 0.029402417820101358
         - -0.015334952864509099
         - 0.031066903617200815
         - 0.042449354365571582
         - -0.050064705157897411
         - 0.038929463229660774
         - -0.025373258697561966
         - -0.088783683849614381
         - 0.011716829046778218
         - 0.023635548987569317
         - 0.023014779742569085
         - -0.029900709363466442
         - -0.03765799855686619
         - -0.011558381054536248
         - -0.0038694118227529163
         - 0.0089668751824454312
         - -0.000194687354319938
         - -0.00045263619515143822
         - -0.034823121798149788
         - 0.039990844839025493
         - 0.023572889287879071
         - 0.029786881051599736
         - -0.074359541160024176
         - -0.0037315737572574479
         - 0.015225099917942134
         - 0.14366104863992596
         - -0.032087092793198331
         - 0.020708630683857782
         - -0.01514349926328629
         - 0.037248390193901582
         - 0.022117372788577762
         - 0.018678578242831451
         - -0.021378553841772757
         - 0.04375020161790262
         - 0.016958189538978152
         - 0.085494881500327094
         - 0.017144801967434838
         - -0.032243100256375209
         - -0.0075699503733640877
         - -0.028980728855349011
         - 0.026131266743435539
         - -0.031987583067572933
         - -0.045287231079488975
         - -0.033969236303917884
         - -0.01007938431935913
         - -0.010245643517655617
         - -0.0054241771369802714
         - -0.059932184359812048
         - -0.016677639685721529
         - -0.00061019838590396563
         - -0.022555267999993953
         - -0.011653100353353513
         - -0.15350822495147085
         - -0.020460414670108756
         - -0.024790781625791018
         - 0.073134075640399282
         - -0.010815025239955022
         - 0.01008650220556943
         - -0.0078175230003423753
         - 0.00065693399736779833
         - 0.019193106744631136
         - 0.029319170004888137
         - 0.078620199959708703
         - 0.0131751224907225
         - -0.088698662712487525
         - 0.029461070573231826
         - 0.0096860447809504324
         - -0.013991145608366718
         - 0.02250673462547868
         - 0.029605910729775222
         - -0.011809009330104946
         - -0.024946383194940941
         - 0.025079880188929728
         - -0.021761548457749646
         - -0.03360845800384725
         - 0.061493952558514614
         - -0.06552514446858565
         - 0.0085784873869444826
         - 0.014949714017312337
         - -0.00033091480410849921
         - 0.026237906327047419
         - -0.0046115559697200905
         - -0.056761382060097273
         - 0.020555435723910349
         - -0.031587137207247547
         - -0.051820785664282075
         - -0.022671272759906217
         - 0.010110998543119188
         - -0.030892401284238168
         - 0.01270089401446872
         - -0.021763001258252996
         - -0.094314943341235261
         - -0.029204192116433728
         - 0.011286552744069669
         - -0.0055611390016520913
         - -0.061315133024511588
         - 0.094802384035980361
         - -0.0069448029908569702
         - -0.024712380245683136
         - 0.075715488807013551
         - 0.039868841883510524
         - -0.12250136625934761
         - 0.10859274148229289
         - 0.076606304909088138
         - -0.029110276610945392
         - 0.024019673696254965
         - 0.024138865989492955
         - 0.097148587433325287
         - -0.15262152577842478
         - 0.018975651332224008
         - -0.053672143933218557
         - -0.029716356031371637
         - 0.082938587742245107
         - -0.15758745492993662
         - -0.014338268050016752
         - 0.031768262832668925
         - 0.021132940571758577
         - 0.093977908069288477
         - -0.064636134773535581
         - 0.024079079006596095
         - 0.05945277124903367
         - -0.19948101232127499
         - -0.14807665941391909
         - -0.0072584395407968676
         - -0.03064860645993886
         - -0.032264790811526708
         - -0.02398536964087607
         - 0.0064583502522707736
         - 0.0092124391320302281
         - 0.008963801739972908
         - 0.0026275380032109983
         - 0.088362619300389633
         - 0.027597938694356335
         - 0.10814401085898799
         - 0.03471592954754802
         - -0.038062663009001685
         - 0.05597756713951213
         - -0.05402826589085425
         - 0.095854718523215199
         - 0.023879309733359264
         - -0.12420746520018497
         - 0.03322801767169388
         - -0.015732972283428889
         - -0.02356877166880823
         - -0.0015013235329768102
         - 0.11765981643812151
         - -0.057814557344543181
         - -0.06497989550434341
         - -0.052645841773736692
         - -0.046361451713952929
         - -0.0095356845214173164
         - -0.0034682685817673765
         - -0.064890013587036666
         - -0.16027081773914315
         - -0.021866857969937651
         - 0.015429008164838116
         - -0.040694731928995781
         - 0.00010255572125341212
         - -0.026022320472354615
         - 0.028140609612483294
         - 0.0021637589895254286
         - 0.052969842106602792
         - -0.082839656705082115
         - -0.030681484863182822
         - 0.10155437733848685
         - 0.14724029826794643
         - 0.047516369572549851
         - -0.077868647413707054
         - 0.042232981038412561
         - -0.033822845164856633
         - 0.13449287068703003
         - -0.059803559021720673
         - -0.025902019273279672
         - 0.04300673259818006
         - 0.17422850627232958
         - -0.12629912438973689
         - -0.010422854219265523
         - -0.089613871799042441
         - 0.063234319196874458
         - -0.048920425741673663
         - 0.032553159036209471
         - 0.019014577829199124
         - 0.086488257972451243
         - -0.0030464420217724865
         - 0.10114852613945453
         - 0.028025218010850481
         - 0.049510170056129489
         - -0.083331275394851384
         - -0.093744809445336877
         - 0.14887070389499155
         - 0.032118186098671668
         - -0.042861048604144955
         - -0.098471683358668807
         - 0.072702112122438781
         - 0.0073291893073174352
         - 0.016184884319968229
         - 0.02521263405894817
         - 0.096714729779714098
         - -0.030272651542248286
         - -0.0068325940373540547
         - 0.15836063994248156
         - -0.046819097440642055
         - 0.048741980618058005
         - -0.026591389361987468
         - -0.078130786774908423
         - 0.17002899664390361
         - -0.039153643280907854
         - 0.12893804860782579
         - -0.12446913097378133
         - -0.011168628011048292
         - 0.075472343621909174
         - 0.080630704912573764
         - 0.02971740967251979
         - -0.05591908495621873
         - 0.027749176983387743
         - -0.093020674206422196
         - 0.031754466440268386
         - 0.099760149966676509
         - 0.032208142568255473
         - 0.037173269036349398
         - -0.15947996841102038
         - 0.035129160114814553
         - 0.078299947162134995
         - -0.026179451678064496
         - -0.024303345198557143
         - -0.14409779349889035
         - 0.077729436082160555
         - 0.039640483583169094
         - -0.083824986798685511
         - 0.18070960349260773
         - -0.020936351392889165
         - 0.0014823596005878697
         - -0.018742429122987632
         - -0.044835609815976743
         - -0.094565653998077842
         - 0.021431507348515434
         - 0.038767962787598663
         - 0.073530688006542194
         - 0.17665346033533799
         - -0.097465020495314345
         - 0.034843499720843905
         - -0.075674130811638304
         - 0.099781806846476126
         - -0.027633390256495378
         - -0.043594365692082693
         - 0.040636574765407628
         - 0.11797154243594932
         - 0.069600506004564341
         - -0.043969867825627784
         - -0.029193736342310865
         - -0.034719853973881776
         - 0.10706919288358695
         - -0.15849446821181409
         - -0.10963953212430717
         - -0.013822338240349221
         - 0.017570793691830979
         - -0.064402066339988462
         - 0.051718454638667484
         - -0.14709683194717307
         - -0.01874159901843013
         - 0.033772421556622641
         - 0.087729113719553026
         - 0.014488414017677555
         - 0.15147192923583958
         - 0.051909212110426345
         - 0.10512049283757419
         - 0.00022788144471262421
         - -0.037215364225536451
         - -0.060958284011453805
         - -0.015299810376982532
         - 0.10828433203200216
         - 0.067892239213908967
         - 0.018394773354894825
         - -0.16526696407684036
         - 0.086387767819266895
         - -0.15465521705527074
         - 0.077390070785739298
         - 0.016810372115084474
         - 0.010438042585596682
         - -0.021655213975162329
         - -0.062811315393229636
         - 0.046875805994741379
         - 0.010710787117539951
         - -0.055183365853664436
         - -0.14583244179348576
         - 0.088345407453270047
         - 0.016728012290372251
         - -0.046675772660287322
         - -0.11420660669101541
         - -0.017104005103515382
         - -0.03009776866515362
         - -0.06508950861335551
         - -0.06581851934269016
         - 0.0024924554027169346
         - -0.12726202683560317
         - 0.012554318708046732
         - -0.045989530114450144
         - -0.02460053229258621
         - -0.010703580499924845
         - -0.00028634624958190363
         - -0.087412973521860629
         - 0.034502282528498782
         - -0.046432515145332122
         - 0.096026303403379656
         - -0.078243192671304612
         - -0.017190775390209623
         - 0.036392788784568114
         - 0.042118369137256584
         - -0.067886628108533034
         - 0.11682598995272256
         - 0.10337104496778537
         - 0.049621375389529009
         - -0.13028459557189606
         - -0.017328371295350344
         - -0.12861516215349217
         - 0.062872618778947426
         - 0.039304483087889905
         - -0.02648766756685272
         - 0.058013257111830925
         - -0.015266950221629712
         - 0.20049646761084494
         - -0.11945201542676048
         - -0.036499193902318421
         - 0.067494083650659245
         - 0.049639832834442829
         - -0.1009280549920718
         - -0.086253504355658595
         - 0.037433754857791622
         - 0.080673294059335626
         - -0.16681612064521584
         - 0.033468318959537516
         - 0.062267830371566101
         - 0.089120531710148665
         - -0.043909941549275078
         - -0.075992842925222501
         - -0.026563355538856935
         - -0.033875039005333632
         - -0.081366540875176252
         - -0.059285644125004991
         - 0.042989338291555872
         - -0.026862507001398986
         - 0.058562196187305494
         - 0.059744367913604844
         - -0.078745422374397592
         - -0.033279256204063946
         - 0.019055041359616023
         - -0.044012447333951252
         - -0.10472460167549318
         - 0.049203529562893519
         - 0.051337300543477737
         - 0.19105675972477298
         - 0.10775976479822645
         - -0.031328397109702422
         - -0.10556388155991313
         - 0.066016012061126506
         - 0.064528326114330112
         - -0.079067681868658646
         - 0.11000265312578922
         - -0.017024847679408206
         - -0.047192264533623712
         - -0.044911461634768376
         - 0.022712467966172298
         - 0.018932736043082335
         - -0.03562997713783185
         - 0.087416329091400916
         - 0.008668683918541158
         - -0.090486580568367281
         - -0.063169737211724128
         - -0.05289310612512152
         - 0.1465111668257971
         - -0.023213559915327656
         - 0.038260416317392312
         - 0.04282058539463876
         - 0.057292598443725549
         - 0.072134090185533142
         - -0.076587660548376013
         - 0.012317887335303009
         - 0.080262149790303355
         - -0.04843526109299124
         - 0.058920030618941945
         - -0.044717503560842781
         - 0.015707541572977969
         - 0.036403288893078603
         - -0.085172435355598167
         - -0.083683980253761558
         - 0.11701649018263369
         - 0.161357611351163
         - 0.11246754197942009
         - -0.036462067876220416
         - 0.026474616798350444
         - -0.13832928316922866
         - -0.034431378725675803
         - 0.10528497699342725
         - 0.17061844133641352
         - -0.15107035525345941
         - -0.059868105896269383
         - -0.13141320103888343
         - -0.067504218723092632
         - -0.10373490956222706
         - -0.099210177225013213
         - 0.028207476904745364
         - 0.0034357729924393795
         - -0.05745137308152215
         - 0.046051931811804739
         - 0.12647869029039102
         - 0.026662912604236467
         - 0.059671203427966016
         - -0.078493294016023382
         - -0.067137196157130374
         - -0.071370282417730815
         - 0.062247311083389517
         - -0.1050561848451657
         - -0.071124156242450359
         - -0.082024285687878007
         - -0.17769503524265473
         - -0.0022010996608733966
         - -0.071566426905060238
         - 0.060892421335508699
         - -0.031569610436156449
         - -0.055613434064503038
         - 0.045413018632823141
         - -0.0409019743240433
         - 0.010284676910754683
         - 0.077703970007425446
         - -0.09187037156415348
         - 0.047814653722597154
         - -0.077510457757335019
         - 0.047425487807961103
         - -0.06100541706294383
         - 0.0023662224714943178
         - 0.019049323224449435
         - -0.051005230612138207
         - 0.10449112167901745
         - 0.019002073149865174
         - 0.045410045820089041
         - 0.066302399720583965
